{
    "learning_rate": 0.1,
    "activation": "ReLU",
    "layer_0": {
        "weights": {
            "rows": 10,
            "cols": 784,
            "vals": [
                [
                    -0.28687489296092394,
                    0.2176161813828097,
                    0.7511257344557833,
                    -0.09145023388904527,
                    -0.0013601921524224458,
                    -0.4330644851119616,
                    -0.246979128375165,
                    0.037819357833493994,
                    -0.25978573868723953,
                    0.9192231972113036,
                    0.9722941201411528,
                    0.08247650360495307,
                    0.7712382345573556,
                    -0.14509488515761682,
                    -0.7402076740679069,
                    0.27644314557478467,
                    0.7773729328265833,
                    0.7175807737496411,
                    -0.20588650841156708,
                    0.6779472844741665,
                    -0.7618015661984032,
                    0.4349763964573441,
                    0.6797807878562583,
                    0.6215375366430758,
                    -0.6857810553864516,
                    -0.6017759393569284,
                    0.0022159824239631476,
                    0.13021096126368592,
                    -0.9677781053041312,
                    -0.867639590487751,
                    -0.16589776264041656,
                    0.24679741478066197,
                    0.4046453201958453,
                    0.5850397103819494,
                    0.18584324619542048,
                    0.31549017843166416,
                    -0.4452982958348555,
                    -0.9549612056783929,
                    0.018796234559536516,
                    0.03784649934330632,
                    -0.14453461501649634,
                    0.5675428443366664,
                    0.10390243736669505,
                    0.17003357111976805,
                    -0.48460571326066804,
                    -0.1111913097516617,
                    0.4996752524876791,
                    -0.0685056327624407,
                    0.9306828857517195,
                    0.5019726173869783,
                    0.934176058126462,
                    -0.43710648781643213,
                    -0.3995716187520466,
                    0.227687305615641,
                    0.05129870904415301,
                    -0.16075407120752683,
                    0.4856006969002624,
                    -0.5555406720751448,
                    -0.9554170189965467,
                    0.20737817625068744,
                    0.5852997994574307,
                    0.3235066694026396,
                    -0.2183833124963548,
                    -0.704837857799556,
                    0.3789558699700329,
                    -0.789869959099968,
                    0.10820157945091745,
                    -0.6280439384955552,
                    -0.16437436204807096,
                    0.1286211635375358,
                    -0.9511965428914021,
                    -0.8889862594246416,
                    0.18195948004134146,
                    0.3991294684553119,
                    0.9509147572290446,
                    -0.5974303588754123,
                    0.5719118956188377,
                    -0.6858594292528194,
                    0.1107787840265356,
                    -0.3326073725928575,
                    0.7057071147123275,
                    -0.6746067636693664,
                    0.7918161107567281,
                    0.7829932499553478,
                    -0.8675138347555522,
                    0.4858096529726279,
                    -0.4237612139672704,
                    0.8529450058626555,
                    0.6574515758444907,
                    0.8416459488341727,
                    0.32263462084230576,
                    -0.41840089443788353,
                    -0.14318038450608475,
                    -0.6034918206976555,
                    0.11123857808044406,
                    0.3557583970753893,
                    0.5563894601004394,
                    0.285147190685822,
                    0.24383553882100573,
                    0.5061949473170008,
                    -0.9201161531454067,
                    -0.8710888385214861,
                    0.2305929231340929,
                    0.7951628165093536,
                    0.43253926398578846,
                    -0.8241448948721737,
                    -0.10899255399746104,
                    -0.38632885420959834,
                    -0.03933769576772041,
                    0.762499934578498,
                    0.5816710646055763,
                    0.08772671856556191,
                    0.2034628521313755,
                    -0.29141208945679575,
                    0.03187656922502291,
                    -0.5299756439942798,
                    -0.3755833247910755,
                    0.426916901625893,
                    -0.9166196233608762,
                    0.8833981835203704,
                    -0.24832673264144906,
                    -0.47151635789125856,
                    0.26299814896044116,
                    -0.1783224416502689,
                    -0.5212598296050492,
                    0.06842225166864038,
                    -0.4178626291571534,
                    -0.5343724415601957,
                    0.32714400524238635,
                    -0.8422697091604299,
                    -0.22978383120684093,
                    -0.5280629332378542,
                    -0.6234222231632042,
                    0.1520412669816977,
                    -0.22629844752358752,
                    -0.25581032443348867,
                    -0.4963316947763951,
                    -0.2989513992242441,
                    0.1913402798435535,
                    0.9010455411782838,
                    0.5238107723226912,
                    -0.4984103783156151,
                    0.26784243117474316,
                    -0.752926004912611,
                    -0.5039341347401368,
                    -0.5581127295286631,
                    -0.11921114423669045,
                    0.2710963176588746,
                    -0.3856751058822382,
                    0.8326752242520479,
                    -0.22881280492488168,
                    0.6817791303962276,
                    0.41433983650495093,
                    -0.6949625628952709,
                    -0.5922499309155251,
                    -1.2559962286887272,
                    0.10363192476295226,
                    -0.31439903381255024,
                    0.3814232697606612,
                    -0.4233707279169695,
                    -0.844934479246968,
                    -0.04655967437048013,
                    0.23782502883542966,
                    0.8463620087849586,
                    0.07135794862705255,
                    0.922545701529604,
                    0.1436500156870291,
                    0.35852593794493637,
                    -0.33264473117702,
                    0.9030098766047319,
                    -0.6931941446736154,
                    0.5379673538178263,
                    0.13461125619279818,
                    -0.517749187516464,
                    -0.9877626974814827,
                    0.335226370400063,
                    0.2777789664297271,
                    -0.9192477891234926,
                    -1.1234527603189115,
                    -0.24190010935489933,
                    -1.3559014076789735,
                    -1.3331883007964644,
                    -0.596221206089297,
                    -0.2514516614783921,
                    -0.2102915421212936,
                    -0.31996114276579063,
                    -0.6754793990356598,
                    -0.12776896231813165,
                    -0.5191750065272979,
                    -0.31745956569102257,
                    -0.5448513658141392,
                    -0.122403947816244,
                    -0.4290154513845806,
                    1.0484467443535075,
                    -0.8206413815578597,
                    -0.5765130606682851,
                    -0.11548305529128777,
                    -0.15225941103760182,
                    0.8151332397958344,
                    -0.4176563251044198,
                    0.08332575595683267,
                    0.29846972435385066,
                    0.5703808707256538,
                    0.9489424492188417,
                    -0.4799022511059927,
                    -0.8936700830487012,
                    0.20126214374512535,
                    -0.7854609172942243,
                    -0.9726632756295929,
                    0.11759964242437562,
                    -0.44669712604117384,
                    -1.586518337930785,
                    -0.9659525027289241,
                    -0.27239747854267754,
                    -1.646887487968574,
                    0.3225980519170978,
                    -0.5552455340087137,
                    0.7735688920850543,
                    -0.1322400510760415,
                    -0.09704823824998594,
                    0.19849163307988735,
                    -0.32110395401932845,
                    0.39203147875945876,
                    -0.3300961960255242,
                    -0.8843625426753507,
                    -0.7507647475170316,
                    -0.6774935528479529,
                    0.3328346156914511,
                    -0.025588544854807427,
                    -0.31566895251968463,
                    -0.0373422040024641,
                    -0.6194387074132194,
                    0.2679330427554725,
                    -0.3314440466716337,
                    -0.4682974232661443,
                    0.5826903760243783,
                    0.15258960701775193,
                    0.4017116604292928,
                    0.16687208254632319,
                    -0.25240881129399695,
                    0.028647177377585174,
                    0.11459622731223516,
                    -0.08608988883845065,
                    0.759557728374093,
                    0.90889110170183,
                    1.069381967415249,
                    0.14303780094903243,
                    0.9236010154350458,
                    -0.034407463948445405,
                    0.13166767092169912,
                    -0.19959028860956513,
                    0.6571183251026453,
                    0.7566724937370483,
                    -0.848848116397354,
                    -0.3200511874573896,
                    -0.8006647818647077,
                    1.0475849131645911,
                    1.074101536926043,
                    -0.2573742341086219,
                    -0.67936814101402,
                    0.31150474446812715,
                    0.7935128601528946,
                    0.37646335782025453,
                    0.38920616502077787,
                    -0.133648043803713,
                    -0.10379369681449913,
                    0.07875204343133657,
                    -0.24223339758967596,
                    -0.14742538252986429,
                    -0.22272940261661409,
                    -0.06691256990371278,
                    0.036344782155736714,
                    -0.43249210396590726,
                    0.03226494934014063,
                    -0.7186820873576868,
                    -0.8468386404178648,
                    0.768372709191447,
                    -0.2888611938171995,
                    -0.33244899466141037,
                    0.360208091517339,
                    -0.5132572172293347,
                    -0.45292605206274505,
                    -0.302067683368768,
                    -0.6437401054681804,
                    -0.2525523458453919,
                    0.7424655434179058,
                    0.5443137978442645,
                    0.5324944602286092,
                    -0.3789329211721693,
                    0.029730484959255208,
                    0.7109730893613465,
                    0.43616163389630674,
                    1.2729207135566618,
                    -0.49573652841474647,
                    0.921170501947461,
                    1.3924326028527507,
                    -0.34343339665674216,
                    0.8409814852503636,
                    0.6390371741944327,
                    -0.827312513166192,
                    -0.3496986935047874,
                    1.3627009664457703,
                    0.5366878350560917,
                    0.4969553964985159,
                    0.6959238793359335,
                    -0.7830911791464324,
                    -0.34035478337724817,
                    -0.9989945040311263,
                    0.9933961410320599,
                    -0.9656606209485386,
                    -0.18537307555125887,
                    0.3276600081211106,
                    0.2409793164970851,
                    -0.43854736826658375,
                    0.5184751834548001,
                    1.2029929774326766,
                    0.462240745958649,
                    0.4326089089099446,
                    -0.1751308658805815,
                    0.23592743784681533,
                    1.1909377584229812,
                    -0.2753248696790524,
                    0.3664969842100235,
                    0.3710221533044247,
                    -0.7478321195014952,
                    -0.7001434862115312,
                    0.24079507887535567,
                    0.879009417016402,
                    0.790620911029054,
                    1.0359304401492115,
                    0.8117935260649125,
                    -0.14201077219343,
                    -0.33681788669463636,
                    -0.6499493978617173,
                    0.15026999170199773,
                    -0.13484249677750482,
                    0.4871233286968328,
                    0.5388479124549362,
                    0.4142719623543867,
                    0.936407403699805,
                    0.7815746155968866,
                    -0.6978031431584201,
                    0.4980433050967272,
                    0.23106054440039064,
                    -0.19645229621443788,
                    0.3258023915429227,
                    0.3005476731232607,
                    0.5693072829535285,
                    0.6796599610379487,
                    0.5324038891485193,
                    -0.800059256367896,
                    -0.9829136551154136,
                    -0.9300768832786832,
                    -0.9809276681735275,
                    -0.14291687471314812,
                    -0.3680928679918258,
                    0.26893785367864503,
                    0.31761126145373547,
                    0.6020021964576739,
                    0.7613436111041348,
                    -0.2995670822196721,
                    -0.17740156495703532,
                    -0.8643086364436476,
                    0.6430828919044207,
                    -0.9492899757664552,
                    1.0123085547864932,
                    0.48334670662188334,
                    -0.3577687713397106,
                    0.7747566353778661,
                    -0.1131714008126919,
                    0.7998059048212552,
                    -0.5113268482189319,
                    0.3197753994758531,
                    0.3790690987451361,
                    0.1426842832664909,
                    -0.9519495530162679,
                    -1.0841513545543187,
                    -0.214182658792428,
                    0.05517146775899485,
                    -1.4474971960844554,
                    0.08410306197284066,
                    -0.9061081649501167,
                    0.793897469338213,
                    1.1465993729202393,
                    -0.03857104113567097,
                    -0.4806288555524535,
                    -0.9271176268685524,
                    0.10271971829378795,
                    -0.9253702168472275,
                    0.8655238304877731,
                    0.6028187151444675,
                    0.6120235400451037,
                    0.033627133027914716,
                    0.2021981512142435,
                    -0.4874158718943931,
                    0.5234615399309156,
                    0.7944611121925934,
                    -0.21228546777287224,
                    0.45537013501110474,
                    0.7479052905748059,
                    0.2801221420236125,
                    -0.5260244734473098,
                    0.01997558907042332,
                    -1.064026267741169,
                    -0.7552726685202784,
                    -1.1671272108526787,
                    0.29650873692470336,
                    -1.3529148695231987,
                    -1.0860055925044036,
                    -0.7775006838947696,
                    0.349333864571543,
                    -0.49557062055696477,
                    0.2239141511017442,
                    -0.6013726861063358,
                    -0.7338134917605619,
                    0.015697986942095475,
                    0.23042569082185835,
                    0.709240875589253,
                    -0.0784407313218407,
                    -0.48390756360056897,
                    -0.42571327309590096,
                    0.10792927118216045,
                    -0.5419510020755449,
                    0.3839976160711916,
                    0.0334667058158627,
                    0.5466570725734847,
                    -0.8096062074321593,
                    0.9872619536813351,
                    -0.147908139506915,
                    -0.9788559493591229,
                    -1.0722666014975233,
                    -1.1679307636272678,
                    0.33226296067771777,
                    -1.1397650100524757,
                    -1.39284202952723,
                    -0.48227183995377276,
                    -0.437049794816322,
                    0.5724578636167739,
                    0.8789908575416009,
                    0.9820922367511355,
                    -0.3555781868763329,
                    -0.8941289542451372,
                    0.6034312189023459,
                    0.045580439313903584,
                    -1.0097688381022147,
                    -0.32220272676568623,
                    -0.1372630744169574,
                    -0.18303919975022298,
                    0.6273706992102899,
                    0.9215929902181157,
                    -0.6735780246088512,
                    0.16994227049812383,
                    -0.6693980422174722,
                    -1.018281772074048,
                    -0.5549673183597481,
                    -0.4667936912176596,
                    -1.1593156624157548,
                    -0.28294849319677684,
                    -1.6068103071786213,
                    -0.7681450579297505,
                    -1.2717412896597164,
                    -0.21446029638446437,
                    -0.9484675548376696,
                    0.5501957542900637,
                    -0.08430051625742609,
                    0.6713306912227485,
                    0.616069923864124,
                    -0.06560719679315731,
                    -0.3613178539669211,
                    0.21562825134412056,
                    -0.18205499960821953,
                    -0.3325322674835274,
                    -0.774424753396821,
                    -0.05447738733116993,
                    0.051966793099669895,
                    0.5142807243937981,
                    0.6691097534789876,
                    0.6824831140542791,
                    0.6197134660927749,
                    0.8526382508798118,
                    0.597038015242015,
                    -0.8857375434672653,
                    -0.39990192521914875,
                    -0.5610996753892397,
                    -1.2248339004589335,
                    -1.3650048950961935,
                    -1.0653471749462642,
                    -0.23773228395884682,
                    -0.9514278130639767,
                    -1.5680480075943153,
                    -0.43608759231650274,
                    -0.3869233538587091,
                    -0.10879263819570358,
                    -0.2296532350555702,
                    -0.5492824197305104,
                    -0.35022223559969423,
                    0.010664058267823297,
                    -0.6044130744974754,
                    0.5975148309696511,
                    -1.1437620783091964,
                    0.5700993170071679,
                    0.4954755906614261,
                    0.19882792223424306,
                    0.09111333301468094,
                    0.6017546550209862,
                    0.30580224534542666,
                    -0.7009849317555369,
                    -0.9914735113700097,
                    -0.15583050256565775,
                    -0.06843700587221828,
                    -0.30196139401899974,
                    -0.5241474459805517,
                    -0.4633200878875904,
                    -1.2275587385679216,
                    -0.0960319577101976,
                    -1.0668662250310492,
                    0.08993515491212553,
                    -1.0991590572080348,
                    0.7174909370526458,
                    -0.10518591095281216,
                    0.27205100691664413,
                    0.005208489985613845,
                    -0.6026927040290645,
                    0.14149568373608828,
                    -0.49903412221025073,
                    0.4391067662305331,
                    0.38148627646213107,
                    -1.0766769912580065,
                    -0.06270400750800245,
                    -0.32301371811925705,
                    -0.1910354412566435,
                    -0.8362588414728764,
                    0.9080089934115803,
                    -0.3739215310978137,
                    0.5205668574250487,
                    -0.19237204146466647,
                    0.5143963114583886,
                    -0.6305137849717557,
                    0.7586556932706531,
                    0.7812738672215281,
                    -0.5239382330021873,
                    -0.6769147895305745,
                    -0.39597347897547125,
                    -0.873549925480767,
                    -0.529720173068576,
                    0.9632048798949278,
                    -1.1405066226679457,
                    -0.7605652170117926,
                    -0.2565533400917449,
                    0.47102898941332394,
                    -0.03813393634397913,
                    0.10773759836655748,
                    0.0030045345738187244,
                    -0.8679823860072761,
                    -0.8106574293758207,
                    0.04425587836097445,
                    0.3463237489745186,
                    -0.806458680437271,
                    -0.5819770702624485,
                    -0.9357855428799455,
                    0.2396312446685933,
                    0.9023582559076879,
                    0.218909704808155,
                    0.33726465519501925,
                    -0.4008275531262891,
                    -0.8454578118451067,
                    -1.0151748595331584,
                    -0.03496855860887021,
                    0.5945585179773887,
                    -0.5788174688758797,
                    -1.2395305492514084,
                    -0.70257453454726,
                    1.0264114305557526,
                    -0.027236738929897884,
                    -0.17725053600345078,
                    -0.6801379510488507,
                    -0.030133526949222205,
                    1.0820272447799482,
                    -0.8295569939448345,
                    0.07147554642266371,
                    -0.9524288357830827,
                    0.034598307275085394,
                    -0.39584137952718773,
                    0.7179538467259277,
                    0.9345363729393444,
                    0.18149939012574634,
                    -0.37217995561032274,
                    -0.2451212622214554,
                    -0.23822179623499928,
                    0.34591794079656535,
                    0.8536998612578075,
                    -0.09799236304537354,
                    0.8454764007550456,
                    -0.1151743125661156,
                    -0.5194978486441633,
                    -0.4621906715003441,
                    -0.018007298262232553,
                    -0.3473353380182791,
                    -0.5444632587519053,
                    -0.4513680585639091,
                    0.48585467730004717,
                    0.6732452621333853,
                    -1.4256695186934343,
                    0.3620996599138123,
                    0.12540911990655407,
                    0.9010892537763079,
                    -0.6942854828787852,
                    0.447424847591442,
                    0.4501307561643301,
                    -0.5840288475260551,
                    0.740744685688379,
                    -0.5877157741915432,
                    0.853900369635536,
                    0.054395814177508627,
                    0.7809125597014921,
                    0.7453229390893967,
                    -0.2792223306109096,
                    -0.3104654523048367,
                    0.5986232624184732,
                    -0.5670226134143567,
                    0.48489618592650996,
                    -0.4944410810461985,
                    -0.3406400592682365,
                    -1.2305071942678145,
                    0.046767730303998105,
                    -0.4553027784932316,
                    0.11049832464114737,
                    -0.566279878605601,
                    -0.7168796989344778,
                    -1.1535876049346523,
                    0.07491540629587655,
                    0.7598529052931224,
                    0.32028052973356563,
                    -0.33642397293020837,
                    -0.6723288390886368,
                    0.7780027923422291,
                    -0.27034118014864994,
                    0.3415739876429486,
                    -0.1530455476255341,
                    0.2580882034637726,
                    0.18016691553694109,
                    0.8975554871177202,
                    -0.09718518381948377,
                    -0.951630190140913,
                    -0.26998364183652535,
                    -0.6240652522993368,
                    -0.7913889148484451,
                    0.4475150367234492,
                    -0.12095291172409911,
                    0.868425794113516,
                    0.8587805592525857,
                    -0.5212606522208288,
                    0.9466248882575116,
                    -0.44571437802492914,
                    -0.05164750586014476,
                    0.7763517453365418,
                    -0.769007027904927,
                    0.45486929038334756,
                    -0.6393907194625764,
                    0.5274374034428752,
                    -0.11501124745167264,
                    0.7326456591566577,
                    0.07604996285734199,
                    0.42126926650599683,
                    -0.6223912400954872,
                    0.6428751891832387,
                    0.9063445656106729,
                    -0.5268357659236772,
                    -0.8602115992866526,
                    -0.647073741524425,
                    0.5621894544617749,
                    0.23382614097823984,
                    0.05204828780864701,
                    0.15853476810717382,
                    0.9976323696147975,
                    -0.7995068622454811,
                    0.0741670673997419,
                    0.15882621466802013,
                    -0.15762269083042563,
                    0.7685980226089953,
                    -0.7255535317688774,
                    -0.4069750211348053,
                    0.23933971323195208,
                    0.8579734961159267,
                    0.8323030749589037,
                    -0.34546500722315193,
                    0.02727642271314581,
                    -0.7112047960048974,
                    0.18198572222875412,
                    -0.44984686513058736,
                    -0.22392626234879365,
                    0.6182628849199426,
                    -0.043908482783405034,
                    0.2604869650511038,
                    -0.564447008018284,
                    0.2385866869613389,
                    0.3343773112425668,
                    -0.4082005503704207,
                    -0.48283966666081324,
                    0.7304924471835812,
                    -0.4873230850705106,
                    0.016082746438049966,
                    0.7331114208269585,
                    0.8641521537834504,
                    -0.06875382892942246,
                    -0.31073892239256035,
                    -0.6569394793562652,
                    -0.6023469329146528,
                    0.004408356939830668,
                    -0.2599720575266357,
                    0.46617848119262273,
                    1.0829573735173046,
                    0.0994596067796651,
                    0.24641115119650736,
                    0.32197671280111523,
                    0.28948260818110966,
                    -0.40113176430019387,
                    0.40595480784809923,
                    -0.24027181615518173,
                    0.47862473465213956,
                    -0.013959579657904989,
                    0.5126030888525238,
                    0.7428069426373635,
                    0.8452826476413288,
                    -0.6655103308238639,
                    0.576343414688427,
                    -0.455582242543523,
                    0.4472839233603285,
                    0.5469766730997934,
                    -0.8854401632958304,
                    0.06575048938851413,
                    -0.003975692585871382,
                    -0.1741743249556435,
                    -0.7866894846362792,
                    0.3740090154609723,
                    0.9002068223889779,
                    -0.7164781143410652,
                    -0.019079302800478763,
                    -0.2497319385013067,
                    0.26370400568165375,
                    -0.02238018422435015,
                    -0.9983239544239985,
                    -0.6782189562509368,
                    -0.6606266843782105,
                    -0.5449416230151971,
                    0.26770868887587784,
                    -0.4297801118957414,
                    0.22147373756611144,
                    0.6000127158328759,
                    -0.49508055715982524,
                    0.36173914913091754,
                    -0.5830042027662566,
                    0.019949216591415908,
                    -0.5443259041267512,
                    -0.9327515472413994,
                    -0.39731424100319,
                    0.8260582300475263,
                    -0.17248753093845348,
                    -0.5209191733601783,
                    -0.48001008117959754,
                    -0.38392541537254526,
                    0.1085263094790765,
                    0.9328445441926575,
                    0.0903079141051602,
                    0.5723864120496424,
                    0.07811538858101026,
                    -0.4362666130061118,
                    -0.4535974548019754,
                    0.2359342855740148,
                    -0.8358833215385347,
                    -0.03666440715478864,
                    -0.8342767840797494,
                    -0.5923396210060023,
                    0.6788185596972928,
                    -0.5987382048410768,
                    0.7649037422915771,
                    0.8078451013637447,
                    -0.2935292307470769,
                    -0.09295037117241287,
                    0.2618284079727582,
                    0.4229284187351121,
                    0.2547439207923585,
                    0.3530593884096631,
                    -0.5252945474366821
                ],
                [
                    -0.15697277612832816,
                    -0.8148317457537251,
                    -0.2201354529092201,
                    -0.30698686079299153,
                    -0.4688815881024153,
                    0.5998709981337593,
                    -0.6658308554001033,
                    0.5100056065241592,
                    -0.9722091947008022,
                    -0.9905123918094239,
                    0.23129803194223175,
                    0.050871233061382526,
                    -0.08385636156652065,
                    0.09487941855063109,
                    0.08316417649553398,
                    -0.5099983342094412,
                    0.00036360235676657915,
                    -0.08637143469451969,
                    0.7274909728745969,
                    0.38487870409610814,
                    -0.19338922348217302,
                    0.21898460619358762,
                    0.30835415667264154,
                    0.9943144062997737,
                    -0.9091078095769669,
                    0.9532545148914333,
                    0.48294560985531776,
                    -0.344669328127887,
                    0.835646735403315,
                    0.8827135972818132,
                    -0.8730990167957677,
                    0.29737202758429393,
                    -0.7676244481823987,
                    -0.8570189345246868,
                    0.8858380683476348,
                    -0.22220714513072587,
                    0.127069732470031,
                    0.911844984680035,
                    -0.02923366983452644,
                    0.8618462777254778,
                    -0.4637854244954599,
                    -0.21184817257331967,
                    1.0312802072578326,
                    -0.16832336084277208,
                    -0.45641127710864116,
                    -0.6425673368271246,
                    -0.637422670825841,
                    -0.4674003194673766,
                    0.284360863440026,
                    0.5688477876282406,
                    0.6653816671079859,
                    0.9852752312101772,
                    -0.6278381231769801,
                    -0.1558970770945396,
                    -0.002143833711809817,
                    -0.7248675696932969,
                    0.9924145211624003,
                    -0.9334856780580731,
                    0.4804368169002918,
                    -0.19854475206052222,
                    0.09192825968853179,
                    0.6044574349804226,
                    -0.4296196468993659,
                    -0.7883563861445607,
                    -0.8317084377067557,
                    -0.8945891478716815,
                    -0.5711001644014844,
                    -0.1329184718475812,
                    1.0059135972359246,
                    -0.33284197103930635,
                    -0.33527887082086605,
                    1.0869262109888096,
                    -0.09470976227183976,
                    -0.5734150164105842,
                    -0.3093014205263782,
                    1.2362887240061438,
                    1.0418791754493473,
                    0.23000261797014507,
                    1.0918174817764321,
                    -0.6549052877560678,
                    -0.6919436154565998,
                    -0.12042337538003843,
                    0.8462138268330823,
                    -0.19143900447600282,
                    -0.9244181015047366,
                    -0.7886379848450464,
                    -0.9405023770698323,
                    0.06537536858930959,
                    0.20547469586564707,
                    0.36245565398193785,
                    0.22317499820545764,
                    -0.3687160721131097,
                    0.6874969596236824,
                    0.19456029268297512,
                    0.8285645510838318,
                    0.4477662968764211,
                    0.4309533113914454,
                    -0.16919736637676785,
                    0.9957138885821379,
                    0.2846991902112317,
                    0.41022878174151817,
                    0.7840895680799721,
                    -0.22536776116296067,
                    1.4004537086757718,
                    -0.22504579014379877,
                    1.009081767947491,
                    0.24338971829321995,
                    0.3221412775928225,
                    0.20878106676195596,
                    -0.6524543615708134,
                    -0.8439927232283257,
                    -0.2118719774068638,
                    -0.17426796952293655,
                    0.8951523853092078,
                    -0.32646713839865765,
                    0.54829588501627,
                    0.8318422595236075,
                    -0.7669122059493753,
                    -0.7090834742563535,
                    -0.9147747225455191,
                    0.0465997572877763,
                    -0.4460920481669353,
                    0.3244554631767256,
                    -0.6467816140844025,
                    -0.7867394163376068,
                    0.273030818327776,
                    0.004682914865484444,
                    -0.44060155908207954,
                    0.2524378987135798,
                    0.11768750376987284,
                    0.3625905707246751,
                    1.1364702739233963,
                    -0.2649041892776075,
                    -0.13071443163950752,
                    0.5103014722383126,
                    -0.6977164257003314,
                    -0.7018292309834167,
                    0.05450728990294977,
                    0.0846605019742351,
                    0.2003651692335915,
                    -0.4810794383649242,
                    0.8481708685822438,
                    0.41965452139829984,
                    -0.5216761851718139,
                    0.5621926943059505,
                    -0.9849813442927132,
                    -0.42802786712012936,
                    -0.17228549303962243,
                    0.03982445081190097,
                    -0.2610190667931495,
                    -0.16281830202380343,
                    0.561578057953908,
                    -0.3975248963819622,
                    0.37281433809702813,
                    -0.859117952067955,
                    -0.007867999267937697,
                    -0.17708322632524942,
                    0.0543344715697094,
                    0.9999188885718384,
                    0.014119384357497256,
                    0.8027807532268834,
                    -0.21550204356995467,
                    -0.37755314191013245,
                    0.4720159637499064,
                    -0.32054794145672644,
                    -0.3526463251981371,
                    -0.2756858716001974,
                    0.284669032037572,
                    -0.702043990732997,
                    -0.1409396860112262,
                    -0.5133539822290071,
                    -0.22820005051136139,
                    -0.6257064559126998,
                    -0.37727282781216764,
                    -0.4666613359338605,
                    -0.3616262869372577,
                    -1.3730246699857738,
                    -0.68005706850741,
                    0.6071130464237793,
                    -0.36975729410269037,
                    -0.0074334358304720535,
                    -0.3374667651615794,
                    -0.24759113793816873,
                    -0.054899969149477604,
                    -0.13747481065265757,
                    0.2253874752019092,
                    0.125271649894937,
                    -0.15925634678028666,
                    -0.2678932771888393,
                    0.5196834123043313,
                    0.46529071824986956,
                    -0.6365685719306474,
                    0.2366802726640872,
                    -0.7857189882366613,
                    -0.5590294882814492,
                    -0.5284905648557421,
                    0.4914752196675669,
                    -0.3000175582879283,
                    0.6245333753774456,
                    0.014735394411465843,
                    -0.8369583902567577,
                    0.5506540468280308,
                    0.4594343768757465,
                    -0.7765186082301563,
                    0.5497355896830419,
                    -0.8481300191871433,
                    0.0759639520339525,
                    -0.12220789882836214,
                    0.013601937615675982,
                    -1.2188377662837921,
                    -0.42527069004091933,
                    0.3578089757501113,
                    -0.6462261260641363,
                    -0.9574176705797312,
                    -1.2659296533763982,
                    -1.3982081616128434,
                    -1.2947238725224248,
                    -1.241988993165516,
                    -0.3650095817223193,
                    -1.038373572928405,
                    -0.9453214449630565,
                    0.13850621456132392,
                    -0.9308071740783791,
                    0.5435532528582545,
                    -0.5902994420830594,
                    0.5858931603629172,
                    0.2422937373432213,
                    0.3924724123671924,
                    -0.8479891171330411,
                    -0.46269882868653545,
                    -1.048241505177938,
                    -0.024871056983504187,
                    0.09016070661071929,
                    -0.4263155764397357,
                    -0.5019980188442356,
                    -1.1967289778412606,
                    0.43011056669462794,
                    -0.5754894715079579,
                    -0.88434802132924,
                    -0.8260888568371413,
                    -0.2866127657703951,
                    -0.6392528042763692,
                    -1.4190739522499891,
                    -0.49972554753523174,
                    -1.2015328104361531,
                    -0.5021770519024442,
                    0.2674761334499233,
                    -0.9564438370526742,
                    -0.2582337063129159,
                    -0.22482379817065934,
                    -0.18419091512690147,
                    -0.4220706744872748,
                    0.12125077177340615,
                    -0.07175547596023371,
                    -0.9437567598471481,
                    0.3620824879561964,
                    0.1734690803289581,
                    -0.7541768391151934,
                    -0.6034221108002691,
                    -0.3032768892961332,
                    0.3758373897997783,
                    -0.7666607186011714,
                    -0.8467085448914871,
                    -0.24442533239038844,
                    -0.2547117745725375,
                    0.6113550725112611,
                    -0.07162916290834268,
                    -0.08876675489888118,
                    -0.5499061909387093,
                    -1.2138272400677605,
                    -1.7053011379500798,
                    -1.2617690320433828,
                    -1.5653831376046339,
                    -1.3966333012227232,
                    -1.084275010178841,
                    -0.202771140615072,
                    0.5096273185034564,
                    0.5631150472929253,
                    -0.022529107236423457,
                    0.6397994003587117,
                    0.9418939042428736,
                    -0.2542118178070094,
                    0.2034608409662268,
                    0.3954349617193279,
                    -0.8513776731859768,
                    -0.23196160550953876,
                    0.6922453592900972,
                    0.5548567664320526,
                    -0.4975188240988055,
                    -0.045511222920503594,
                    0.0960838693447116,
                    -0.11085976030448913,
                    -0.759517226830258,
                    0.4254293361119768,
                    0.47540005617814607,
                    -0.9707888286951399,
                    -0.9551631225839998,
                    -1.4958092960136358,
                    -0.44449658396169245,
                    -1.4229437753398264,
                    -0.2257717161231847,
                    -0.17726299431912046,
                    -0.24980378294415523,
                    0.24708279295475444,
                    0.10777238996983551,
                    -0.3545393425348733,
                    -0.8284926884722402,
                    -0.09734843599238352,
                    0.345132482774545,
                    -0.62354666528872,
                    0.8693689000139219,
                    -0.4207275580425812,
                    0.7136288403215914,
                    -0.4831541466342391,
                    -0.9676217558574001,
                    -0.5423151344600197,
                    0.736518543843707,
                    0.01954996169373449,
                    -0.16689964276109648,
                    -0.6288246785179059,
                    -0.8201319902975526,
                    -0.9780885981643245,
                    -0.7602074110191862,
                    -0.1603707516146856,
                    0.1629715477761943,
                    -0.19885163003115272,
                    0.34525403507372626,
                    0.268175309093412,
                    -1.026127028815373,
                    0.655467048998966,
                    0.06408643325457529,
                    -0.22373114751489703,
                    -0.14338516690119113,
                    -0.24900771291892135,
                    -0.8342917837611806,
                    -0.8670195037938546,
                    -0.40431787648908313,
                    -0.5192283688505704,
                    0.7974364603224279,
                    -0.4024009883228062,
                    0.32638332047931123,
                    -0.7112866421552552,
                    0.7548552751032046,
                    -1.0221310094897564,
                    -0.2996289239396575,
                    0.13819388038048674,
                    -0.8343463005218222,
                    0.5733745929052585,
                    0.37536542040349435,
                    -0.08245913263407333,
                    -1.4380885984150367,
                    -0.6010051426746388,
                    -0.09282444901668281,
                    -0.6282090552993183,
                    0.1101222777283937,
                    0.7722270790487583,
                    -0.8462753775395685,
                    0.40819180462047977,
                    0.7023187599709171,
                    -0.6423379061429084,
                    -0.8290490862698677,
                    0.20051583993292957,
                    -0.5201397164446893,
                    -0.0590602839197276,
                    0.19554635970960854,
                    0.46948398997605756,
                    0.0956894623233086,
                    0.5247153578715922,
                    -1.137484103545685,
                    -0.33047516005468724,
                    -0.17594983744621379,
                    -0.7211237823677814,
                    -0.17511839631759116,
                    0.3054918318519309,
                    0.6528372470503901,
                    0.5889085512901847,
                    0.9852085221520493,
                    -0.17173459571604657,
                    -1.5263056100734214,
                    -0.34701320791327117,
                    0.9161239253024963,
                    -0.5808030413405972,
                    0.3530111254021005,
                    -0.639085433506013,
                    0.665801083879568,
                    -0.5723880035492808,
                    1.003561750267221,
                    0.7692764892206814,
                    -0.6321837125311454,
                    -0.28244690012514784,
                    -0.2562344034667581,
                    0.6405370792667984,
                    -0.7617204822621763,
                    -0.490114365213447,
                    -0.16404698482152608,
                    0.3992458952073057,
                    0.2598943912107973,
                    0.19853249455522992,
                    0.37154751981125533,
                    -0.43987575502287785,
                    0.09371900248382825,
                    0.5807858076987116,
                    0.33636415520763446,
                    -0.16634038286955216,
                    0.07742654371869102,
                    -0.07921392336141592,
                    0.46279463514866215,
                    -0.6125585541090002,
                    0.42460237468236856,
                    0.4247680447411868,
                    0.005593936129095237,
                    -0.40698218398735253,
                    0.5040727945248024,
                    1.1378452604066844,
                    1.2406673852678194,
                    1.3799097997225247,
                    0.45703980042019204,
                    0.5517238370666577,
                    0.46298624941902167,
                    0.17948385881896722,
                    0.861656645690468,
                    0.2578484391493372,
                    0.9523165606954592,
                    0.6126483059219138,
                    -1.0920812494191847,
                    -0.5936944039795383,
                    -0.6567494889809324,
                    -0.09195369396477236,
                    1.1737386761539865,
                    0.02125488750132067,
                    0.15445644277312603,
                    1.4799027705330232,
                    0.23560313681161896,
                    0.08231845454078553,
                    -0.4497166740290018,
                    -0.1711647018340681,
                    0.008708426597792881,
                    -0.025772001955007527,
                    -0.893150852292702,
                    0.5809936087184439,
                    -0.7450169693904973,
                    -0.6466529644357419,
                    0.9811956236014636,
                    -0.3047672550740884,
                    0.6569314504800187,
                    -0.3082248633450737,
                    0.5259204051526407,
                    0.8860090709267037,
                    -0.1170626880482879,
                    0.8028938824406322,
                    -0.3293794105664681,
                    0.31554765837243376,
                    -0.492103417720662,
                    -0.11279532488179435,
                    -0.35432862128697357,
                    -0.27225790626156143,
                    0.30608232154792886,
                    -0.28593102489035355,
                    0.8469732885167006,
                    1.0166628312831985,
                    -0.773327841365598,
                    0.3735759294561353,
                    -0.29644954064197365,
                    -0.27289188193432307,
                    -0.013208784031524794,
                    0.05259823582130047,
                    -1.0387664007734805,
                    -0.3494852618960857,
                    0.6600790657493858,
                    -0.6704751719234487,
                    1.2868210660565729,
                    0.5005028269937561,
                    -1.0159828090308942,
                    -0.3346553463448963,
                    -0.5291519354006848,
                    -0.2289291801216044,
                    -0.3633679121734601,
                    0.29812514190324224,
                    0.1263019386152024,
                    -0.14936774002534406,
                    -0.7315720836443111,
                    -0.8233951193029229,
                    0.04760311857246651,
                    -0.5887941604986711,
                    -0.009552607199475127,
                    1.3682903878602362,
                    0.20846902321267716,
                    0.4692984419402018,
                    0.42688058974586124,
                    -0.04010457792030967,
                    0.6206078667582973,
                    -0.1732610280167623,
                    -1.1703017874853197,
                    -0.463519714236005,
                    0.4632324514336585,
                    0.5336735146906865,
                    -0.37871045399953507,
                    0.7135414902657337,
                    1.0033495826863479,
                    0.9795910630150847,
                    -0.2183432860560833,
                    -1.124587638892489,
                    0.00324097065725795,
                    0.41208261877607866,
                    -0.026732075586031412,
                    0.5876264425288056,
                    0.0057876395481637356,
                    0.2922374297899403,
                    -0.20384348382551928,
                    -0.679093943916601,
                    -0.11875601713164677,
                    0.7808738226990196,
                    0.8973906863549503,
                    0.8866011373260124,
                    0.10710108178088379,
                    0.25917663361375387,
                    1.3992303267327568,
                    0.19579800646288462,
                    -0.47156474155727385,
                    -0.782823708123216,
                    0.2623622332624357,
                    1.0408899004093732,
                    0.17042170585709948,
                    0.20902617974375756,
                    -0.0390391191508409,
                    -0.2142250314708904,
                    0.38658930556094434,
                    0.09009828318214524,
                    0.21759942908923544,
                    -0.9269530232695817,
                    -0.671421491454367,
                    0.5529831909798876,
                    0.05714764810437911,
                    -0.1614393853698557,
                    -0.9772643231565327,
                    -0.18039953379563642,
                    -0.7877788918314741,
                    0.14110689047721342,
                    -0.3849514624768194,
                    0.1024499252537888,
                    -0.9253129809995108,
                    -0.19517721864828422,
                    0.6799866820047683,
                    1.3661060234233198,
                    0.2383196107181233,
                    -0.42080482976913486,
                    1.2806069159670042,
                    0.00991108234110931,
                    0.5606541994924445,
                    0.6060949218209926,
                    -0.11129197756178054,
                    0.4740974984285921,
                    0.7589091090595513,
                    0.1617449864991897,
                    -0.7173155676581767,
                    -0.9107948490266305,
                    -0.19373267369403768,
                    0.7030286266691174,
                    0.6453320271244288,
                    0.5669391765293081,
                    -0.07316362681220134,
                    0.001108403703004912,
                    -0.4509366331005075,
                    0.8000668013390195,
                    0.8659623446830162,
                    -0.8906822841676095,
                    -0.3733740382084191,
                    -0.5093424369898379,
                    -0.4872736608588638,
                    -0.583729941947237,
                    1.0130397950535228,
                    0.23469566455119834,
                    -0.10197900564360392,
                    1.1585124905720696,
                    0.5178327829229918,
                    -0.22168803461004077,
                    0.979320201462387,
                    0.08081948583046974,
                    -0.0041827628202920995,
                    -0.35997209047840073,
                    0.5697569150737865,
                    -0.02141058831432481,
                    -0.3599022713431973,
                    0.1378003802456029,
                    -0.1535303847908556,
                    0.2516787305790034,
                    -0.7327308256506123,
                    -0.6877175895370784,
                    -0.5749158648216941,
                    0.8041941762520617,
                    -0.7082447772671733,
                    -0.08588380291680374,
                    0.9366800798472326,
                    -0.7810541000503415,
                    0.1385772235009788,
                    -0.41701521383658396,
                    -0.40845403524665463,
                    -0.02627965521312848,
                    0.6613879860460055,
                    0.9931473905237973,
                    0.6037604367845204,
                    1.0307609492738972,
                    1.1815173490034958,
                    0.06285992676015983,
                    0.9888671743456224,
                    0.28150185742254147,
                    0.4298370119357254,
                    -0.01637973763279574,
                    -1.0632792542617384,
                    0.5528348125810705,
                    -0.17685843413575772,
                    -0.41192804229824825,
                    -0.20571692540677278,
                    -0.7585915793554184,
                    0.7473861696906591,
                    0.49813567178181706,
                    0.9799016975423349,
                    0.1755327591666005,
                    -0.196809549985985,
                    -0.1297828845024513,
                    -0.5255770055505188,
                    -0.5970359389257092,
                    0.11362839221713089,
                    -0.07516226227395707,
                    -0.983991698403851,
                    -1.2218324657627013,
                    -0.044930959796230956,
                    -0.2586474297639945,
                    -0.7200829019287978,
                    -1.024575003428651,
                    -0.43353104946611953,
                    -0.3565509073073914,
                    0.3084474374671444,
                    -1.1539649410153712,
                    -0.3943520705192561,
                    -0.27001303363728124,
                    0.14445859338213904,
                    -0.011771479369258707,
                    0.0712264206943687,
                    -0.7953329038351409,
                    -0.3217111206774445,
                    -0.8093347401896746,
                    -0.6280228375107902,
                    0.4237050637434041,
                    -0.2772830066696621,
                    -0.18586525606703264,
                    -0.8611056890462614,
                    -0.9412756326214311,
                    -0.5544409789431721,
                    -0.584395258851531,
                    -0.5462087748262379,
                    -0.7236895210252724,
                    -1.1103579360059548,
                    0.019883790341582438,
                    -0.6155176555267743,
                    -1.43657215292429,
                    -1.1551875308068253,
                    -0.9108673710071359,
                    0.07252753227007012,
                    -0.047578208844064704,
                    0.01656538265660997,
                    0.06002340819865909,
                    -0.9715699412037805,
                    0.3794671291804815,
                    -0.21471907580221883,
                    0.013544081327906493,
                    -0.11405157171998516,
                    -0.38355531486843053,
                    -1.0430353493231928,
                    0.5036247024852984,
                    -0.8264810902705351,
                    -0.4662300594405224,
                    0.42202530106894454,
                    -0.8171559210600579,
                    -0.6385951148592628,
                    -0.8132114212452042,
                    -0.31633201544257855,
                    0.6246123353494408,
                    -0.8093661468628374,
                    -0.057670614822322476,
                    0.23436055280466472,
                    -0.418105408866681,
                    0.32539276997314887,
                    -1.1200239351791057,
                    -0.06746983732102554,
                    -0.45441132659248723,
                    -1.2175315198989944,
                    -0.36867636743827414,
                    -0.29251117369799423,
                    0.05390492752998931,
                    0.35726243977564726,
                    0.8600297874574956,
                    -0.2593607774495692,
                    -0.1924376061771453,
                    0.919138621087085,
                    -0.70613056247732,
                    0.48132191411133246,
                    -0.716743451147954,
                    -0.10855641989975759,
                    0.05029420709672583,
                    -0.22927709548574926,
                    0.9326135161412095,
                    -0.6292095072168964,
                    -0.41647923558340527,
                    0.6323916959148093,
                    0.1927644776564985,
                    0.9557287015506075,
                    0.29242089988484354,
                    0.8905040056736169,
                    -0.3473578806658678,
                    0.10575923443060896,
                    -0.776815042343301,
                    -0.1768248698681603,
                    0.1259802798661362,
                    -0.8338802815180731,
                    0.6408347444495228,
                    0.28578562264959945,
                    0.2719756774205472,
                    -0.5958692493683182,
                    -0.8622177211821922,
                    -0.35633483142941347,
                    -0.0437597148433557,
                    0.05092181298006357,
                    0.5473225226517995,
                    -0.786703967864324,
                    0.34541428748454583,
                    0.5032330321783587,
                    0.2885284414324656,
                    0.18398436035004329,
                    0.7423192135542911,
                    -0.2118162743667884,
                    -0.2531885373447591,
                    -0.5850446913680618,
                    -0.6477016064283927,
                    -0.3200062352895412,
                    -0.5962061951384583,
                    0.36972584320616186,
                    -0.4354611205497428,
                    0.46541478336895253,
                    0.14747128963033002,
                    -0.31469759895860155,
                    -0.18009682570280608,
                    0.40710726167858313,
                    -0.623854357952291,
                    -0.4067425647512593,
                    0.7221185586143941,
                    0.9265001436131018,
                    -0.5537407077147589,
                    -0.48711058598151546,
                    0.244499230421811,
                    -0.693094547284109,
                    -0.7975207863944536,
                    0.2816624321110912,
                    0.33338503326197766,
                    -0.4616576997064603,
                    -0.6474224654792384,
                    0.1645473278813625,
                    0.7354610000258954,
                    0.5176176958594059,
                    -0.679909441896982,
                    -0.15762508924876317,
                    0.9456763155986521,
                    -0.17137261638008727,
                    0.04637493905693679,
                    -0.4662129223564515,
                    0.6192545123688156,
                    -0.4001887881761854,
                    -0.931214437758928,
                    0.5474286156770918,
                    0.5603719843817891,
                    -0.6522612792335254,
                    0.9438029084546441,
                    0.767282314675182,
                    0.7199875150917561,
                    0.1686713292890376,
                    0.5859583743234753,
                    -0.8631247150168824,
                    -0.9897667132462045,
                    0.4113880524220217,
                    -0.9480124556362626,
                    -0.4033519992256114,
                    -0.6765857146435479,
                    -0.3186026844166234,
                    -0.8880562748714993
                ],
                [
                    0.3315108160164313,
                    0.18628971930096294,
                    -0.520059357847706,
                    0.7000296310428993,
                    -0.5730285976886538,
                    0.5573018294906307,
                    0.3396824164729151,
                    -0.7324460766017706,
                    -0.315452415475052,
                    -0.14455242658967427,
                    -0.8761555251308262,
                    -0.13485235768159565,
                    -0.575094768235449,
                    -0.20300432144448832,
                    -0.50196879991798,
                    -0.6563025887922032,
                    0.8355955450989738,
                    -0.628104319612685,
                    -0.6544118738931044,
                    0.7538687254000307,
                    0.8103994814179263,
                    -0.6618954617736075,
                    0.25274533256742826,
                    -0.7662643570557066,
                    -0.20575579487806483,
                    0.6649301064092992,
                    0.4962387474282641,
                    0.829353595756712,
                    0.6653081238582068,
                    -0.8762754061155453,
                    0.7990934874595015,
                    0.7882974209496627,
                    0.9072391999639269,
                    0.436156778299033,
                    0.5548425600367177,
                    -0.25408633484222176,
                    -0.5163139141638524,
                    0.7605204463397879,
                    -0.22284203456549712,
                    0.43504953161410365,
                    -0.6705840404617607,
                    -0.5907948330318369,
                    -0.13707885970775724,
                    0.9559025599086973,
                    -0.8221158582852356,
                    -0.28381032696445907,
                    0.7206424097929369,
                    -0.9497911361946572,
                    -0.3513705352943661,
                    0.7417749388830657,
                    -0.904724344014878,
                    -0.13954617115772483,
                    -0.3992528724570088,
                    -0.9191487714929367,
                    -0.7702073327288941,
                    -0.771855920040073,
                    0.14494081457246333,
                    0.6240107447368191,
                    0.16290861350807173,
                    -0.9001661034850594,
                    -0.42094463171580143,
                    0.5604905195894172,
                    -0.2860826741095137,
                    -0.18590937857772682,
                    -0.4242790752541876,
                    -0.023879882791892237,
                    -0.09340933039212085,
                    0.6349674168208265,
                    0.08221393107765783,
                    -0.4510237491610962,
                    0.31422623132383193,
                    0.316024509605014,
                    0.556544161249032,
                    0.2518761335550449,
                    0.9175672424873682,
                    0.9732183569189972,
                    -0.397125931516548,
                    -0.22626185434644772,
                    -0.5476593524013977,
                    0.45440617749054657,
                    0.17171310002179618,
                    -0.7707618188144445,
                    0.16740760543592104,
                    -0.8725581367824629,
                    -0.2752505892867343,
                    0.9606881709432751,
                    -0.8959191220730947,
                    0.35020962593582716,
                    0.5476340159268682,
                    -0.8731454960502072,
                    0.2321945628126929,
                    -0.4021350648082105,
                    -0.9283981726206971,
                    0.5013774434330749,
                    -0.39389842557921606,
                    -0.94769586348624,
                    -0.17281100714147302,
                    -0.8462003117706262,
                    0.4861233863530876,
                    0.6768737557848614,
                    0.15100939131246557,
                    0.5645707878918826,
                    0.7344182644378389,
                    0.30229076720022113,
                    0.4126506526171894,
                    -0.6697242615025835,
                    -0.31422400650060506,
                    0.0320577472239866,
                    -0.0021706711020135355,
                    -0.6529197565116318,
                    0.8561156091596793,
                    0.7615366947687137,
                    0.8458611268770675,
                    0.6903409174697637,
                    -0.2200396423853046,
                    -0.9517353100512493,
                    0.18431934680783738,
                    7.953912755069093e-05,
                    0.8850261422522147,
                    0.26978762174530596,
                    0.9736632273417963,
                    0.9466963532490256,
                    0.11602462008708235,
                    -0.09429682754856335,
                    -0.3562537828235656,
                    0.33276548391065547,
                    -0.661492425933612,
                    0.7503788826947575,
                    -0.3740759626677535,
                    0.09097375732316108,
                    0.1926580419561401,
                    -0.2058384931261394,
                    0.8655989066984502,
                    -0.27645010649348944,
                    0.24148508975139682,
                    0.6976955783538902,
                    0.3862025475926277,
                    -0.008301851278997602,
                    -0.6238282600215279,
                    -0.9332449591947642,
                    -0.49208922796313903,
                    -0.929742738054109,
                    0.20047296523240044,
                    -0.9745213094810178,
                    -0.9332243805465928,
                    0.44299849155684173,
                    0.3315591701853312,
                    -0.29593334035554697,
                    -0.7027582902113628,
                    0.4016717187680358,
                    -0.3750580764686644,
                    0.09868599813465759,
                    -1.3385927916240155,
                    -0.7578883299043229,
                    -0.2381962034486365,
                    -0.41925100727086695,
                    -1.4614989368828477,
                    -1.5274056120025779,
                    0.4226648856624883,
                    -0.7333489787661738,
                    -0.7057590909887808,
                    -0.1852048103421361,
                    0.6667249990912554,
                    0.8560743090595893,
                    -0.3333917560024851,
                    0.8631033087080344,
                    0.021633241394195736,
                    -0.5310644180365498,
                    0.32687529428080575,
                    -0.5113692362919977,
                    0.6599948519660164,
                    -0.5178880745882847,
                    -0.7036291472476419,
                    -0.5761340748639374,
                    -0.19772174629625985,
                    -1.0079163482135962,
                    0.6825847476293431,
                    -0.4082231913961742,
                    -0.0722392361296969,
                    -0.350340664663733,
                    -0.8732162591664475,
                    -1.4458377969229568,
                    -1.1363716420641097,
                    -0.24650365029502955,
                    -1.7221681222221776,
                    -0.7583798977028897,
                    -0.7838818552430042,
                    -0.47115000917968125,
                    -0.7368677402699386,
                    0.03164520292922598,
                    -1.1234541723899703,
                    -0.9433188402278248,
                    0.6396202012670217,
                    -0.9582148237053973,
                    -0.46832562997917837,
                    -0.3494547612150542,
                    -0.5035518962439034,
                    -0.32107666294067083,
                    -0.5548298057409674,
                    -0.7275618230342757,
                    0.10531839060796945,
                    0.4768115426833085,
                    0.33196028971288843,
                    -0.23585357298202145,
                    0.9609993436890344,
                    1.0575479585935375,
                    -0.17984965502280606,
                    0.2763722643225876,
                    0.1558869051833707,
                    -0.3902267604222772,
                    -0.5769834030472203,
                    -1.271688354772146,
                    -0.5196535514501482,
                    -0.2576244857119995,
                    -0.5725144805285399,
                    -0.10625732550952224,
                    -0.02463222347890931,
                    -0.8132401510105433,
                    0.3651824109229698,
                    0.007600695246355494,
                    -0.1305056476689466,
                    0.7668543404098644,
                    0.8382313979521877,
                    0.4003208316743667,
                    0.007765266551174931,
                    0.9666840384438191,
                    1.050671959714821,
                    -0.7626641908864964,
                    0.47017400991127417,
                    -0.0768104889505041,
                    -0.5902643436942933,
                    1.0301352767977603,
                    1.3368996354253244,
                    1.081862822535059,
                    1.3883502082646906,
                    0.5766902785582767,
                    -0.27456154440256375,
                    -0.484583849890296,
                    0.722690696265281,
                    0.9497869714811097,
                    1.0782188352332358,
                    0.5205005301960348,
                    0.40628902694311103,
                    -0.5940889333787378,
                    0.5381085657412755,
                    -0.5512205736034052,
                    -0.1223160631597356,
                    0.30157604666010623,
                    -0.08886340241321228,
                    0.13575200839100116,
                    0.9376365497212439,
                    -0.761641572130365,
                    -0.8888266234864768,
                    0.969130322013458,
                    0.2648154000767662,
                    0.672729252712395,
                    0.39981647447441904,
                    0.7440560716613794,
                    0.14119896893093992,
                    0.7592990916318215,
                    0.11234789953203843,
                    1.5651356977911244,
                    0.4712446502845813,
                    0.7070752055818497,
                    0.5473624742643909,
                    1.080579639122433,
                    1.1621386480474907,
                    1.067524258098421,
                    0.4304487142249744,
                    0.4832021547765987,
                    -0.32436693967665203,
                    0.8148746162119258,
                    0.08993931811088471,
                    0.7721185123012287,
                    -0.1408512942503406,
                    0.4252945939222772,
                    -1.074633506907966,
                    0.36074862439437605,
                    -0.06995594168855433,
                    -0.8899400755312263,
                    0.11848658191041446,
                    -0.800364788461818,
                    -0.7519841426013081,
                    0.5196190919709776,
                    0.38449428788555295,
                    -0.9224306018016749,
                    0.10342452238565301,
                    -0.3372424920816494,
                    -0.9007921863080275,
                    0.07069827544812243,
                    0.09830007717873618,
                    -0.8221029830881653,
                    1.2269183496965204,
                    -0.4852719494928584,
                    0.03371341259294732,
                    1.3626542885883393,
                    1.3011025477691898,
                    0.5582328715869508,
                    0.39841544966465264,
                    0.44905171507468206,
                    -0.09589680949762086,
                    0.401707125381397,
                    -0.8950733971183946,
                    -0.9499551139524064,
                    0.4105037746815094,
                    -0.7774760953923225,
                    -0.7895185773105697,
                    0.8670708583217253,
                    0.7648537398941221,
                    0.7172416950644023,
                    0.8510030098839378,
                    0.8102218848522245,
                    -0.5160089337745416,
                    0.07150544750596917,
                    0.31961680603414105,
                    0.17144536641441674,
                    -0.24261490216225506,
                    -1.063220488260565,
                    -1.1625372016187099,
                    -1.158054055667048,
                    -1.1983161689416633,
                    -1.2828038614247275,
                    -0.6099177721535862,
                    -0.8422582184985394,
                    -0.526278723320561,
                    0.2021674297581769,
                    0.5381237470945796,
                    0.06899693737718733,
                    -0.42055178371750135,
                    -0.563748047134868,
                    0.292778932869736,
                    0.7603332913260387,
                    0.40148209517150496,
                    -0.5207525850587126,
                    0.27142991446774656,
                    -0.35077001206086145,
                    0.6798372506071401,
                    -0.7343811487216745,
                    0.5348463689704879,
                    -0.7238653215160457,
                    0.508873368939472,
                    0.7515867605476769,
                    -0.6445372477844377,
                    -0.39434981736929225,
                    -0.9451737206596583,
                    0.2101337897820452,
                    -0.27342182707522633,
                    -0.753426959867489,
                    -0.47969724456000906,
                    -1.1992753519268127,
                    -0.9982785214807887,
                    -0.8043528660866794,
                    0.14018081503458305,
                    -0.7790709740557326,
                    1.1035677986864598,
                    -0.32795872929394215,
                    -0.32384808580523816,
                    0.8499951858906136,
                    -0.5711047370794817,
                    -0.46034496164886934,
                    0.5816192658770416,
                    0.8160616418664778,
                    -0.6945105671653036,
                    -0.10749845225141752,
                    -0.6322798855478788,
                    -0.6472094274771061,
                    1.0401950886709037,
                    0.06858944267089073,
                    0.6999169935354655,
                    -0.9374364950831798,
                    -0.19718309105837095,
                    0.6160614419745717,
                    -0.6870975335247326,
                    0.11652678390542547,
                    -1.2777749991777703,
                    -0.92305289797608,
                    -1.2999117811386216,
                    -0.6057019195791563,
                    -0.9173802800614821,
                    -1.3021562095007233,
                    -0.4197662705415372,
                    0.08987204487383396,
                    -0.4688556548226791,
                    0.41896687157032847,
                    -0.18825789549529479,
                    -1.165965287461671,
                    -0.6503215888404975,
                    0.2651223201339511,
                    0.21443913769032047,
                    -0.08224878369896678,
                    -0.7061216548690943,
                    0.03850057313860766,
                    -0.4000414695003194,
                    -0.01632803807336346,
                    -0.817270714280452,
                    0.812591628944922,
                    0.12646659973057536,
                    0.21039920490948724,
                    -0.596803547217063,
                    -0.29988020623055567,
                    0.4832297214802092,
                    -0.10786370413024596,
                    -1.050644702662535,
                    -1.8154872444925154,
                    -0.5023261885221249,
                    -0.5845794489384711,
                    -0.7296511001031172,
                    -0.5969058097170044,
                    0.013927472680160773,
                    -0.6205989714123761,
                    -0.2961790011380699,
                    0.8561743757794842,
                    0.2430712950965327,
                    -0.6897462191259102,
                    -0.846597145270019,
                    -0.4029245922477024,
                    0.35748451523718155,
                    -0.9573473293486316,
                    -0.03679813206957594,
                    0.9966012270384048,
                    -0.5864735057601194,
                    -0.5693492592258076,
                    0.5838323566829591,
                    0.12030175593372117,
                    -0.9229959272093095,
                    -0.06499078031569293,
                    -1.248932808077781,
                    -1.0675892836339413,
                    -1.1455256123615818,
                    -1.094920079994598,
                    -1.1537740424240137,
                    -1.3016410407384764,
                    -1.3526164002332677,
                    -1.234644869988318,
                    -1.0272374419879404,
                    0.028046348924838288,
                    0.49116007184439847,
                    0.829901486498652,
                    0.5129369880915042,
                    0.022434100832309713,
                    -0.12969872927034024,
                    -0.48472675451626385,
                    -0.21602822272961342,
                    0.1694779696672883,
                    0.0771354681408225,
                    0.2131563740588973,
                    -0.011996624149287094,
                    0.02223102964142387,
                    -0.3099649411030334,
                    0.09936847164445473,
                    0.35692240587066987,
                    -0.2167317217755798,
                    0.03554035110191924,
                    -0.690149370957581,
                    -1.0255425137728231,
                    0.20374112148727633,
                    -1.1369056765267302,
                    -0.03013960446793745,
                    -0.6995577974346943,
                    -1.4228541798395766,
                    -2.105260926669149,
                    -1.8279371934379225,
                    -0.18309188359929612,
                    -0.5353593361309703,
                    0.11343485921692557,
                    0.35732084465561276,
                    0.42148524135840254,
                    -0.8625481385149165,
                    0.21379981243494292,
                    -0.6567839967797212,
                    -0.783332142085214,
                    -1.270038680111252,
                    0.5753659439272929,
                    0.6595735128057146,
                    -0.8106704800847002,
                    0.634258102082311,
                    0.5349568370423745,
                    -0.6600334379143353,
                    -0.25080789227768163,
                    -0.6297916005009712,
                    -0.8249771708321517,
                    -0.3321221356538549,
                    -0.7881958318045289,
                    -1.0036729087260357,
                    -0.12578062988497615,
                    -0.741281391005478,
                    -0.6899961485977165,
                    -0.5359440463057106,
                    -0.8110100430678653,
                    -1.007570524483596,
                    0.25285288029288905,
                    0.5206135502324428,
                    0.3966061671376286,
                    -1.2411252518668432,
                    -0.27643004452782843,
                    -1.0968895018361078,
                    -0.1484199067249409,
                    -0.5827702629316286,
                    0.3190990324562019,
                    -1.1619700337947982,
                    -0.3709110342395865,
                    -0.5000461021882193,
                    0.4286424710485178,
                    0.8612568219334331,
                    -0.6813374418096995,
                    -0.4056528701893562,
                    -0.9925548249167664,
                    -0.9882137961878851,
                    0.3437787858198932,
                    -0.1981324190021172,
                    0.3334580206732458,
                    0.20014454399577933,
                    -1.2408682997819855,
                    -0.67278445242078,
                    -0.2774967823158007,
                    -1.2325669072882535,
                    0.06481220574393144,
                    -0.1274341931476544,
                    -0.15776969955701475,
                    -0.27619838999100427,
                    -0.8486719221129401,
                    -1.5362955591639156,
                    -1.1304753841613366,
                    -1.137470103595886,
                    -1.1668288182138844,
                    -1.3318780170976314,
                    0.3103323737284752,
                    -1.0495348310372312,
                    -0.537895623978252,
                    -0.18521417337915141,
                    0.36538508672483666,
                    -0.0578503579855878,
                    0.4723466215752752,
                    0.40588116170499267,
                    -0.17575270687178687,
                    0.8285535397949993,
                    -0.9788437486823586,
                    -1.309816909691112,
                    -0.5401131674312548,
                    -0.2017009025336734,
                    -1.5907347641053016,
                    0.05566332561207432,
                    -1.1509584006199376,
                    -1.5182997065610804,
                    -0.6208257907948392,
                    0.7986721264130429,
                    -1.0770296750814972,
                    0.583088036193048,
                    -0.5930761567991754,
                    -1.376964603898031,
                    -0.11660764248532063,
                    -1.5682497268607611,
                    -0.15167163681011955,
                    -1.119850258875432,
                    -0.6096135456219265,
                    0.08849580018852504,
                    0.22641688856565859,
                    0.2021102640116858,
                    -0.864752128335595,
                    -0.3355199790389607,
                    0.9377502273623264,
                    -0.5498597774103178,
                    0.3947964353054043,
                    -0.23106632356911405,
                    0.027744111495661503,
                    0.7528452399462889,
                    -0.007555184014709823,
                    -0.8925896882486549,
                    -1.5230127254283712,
                    -1.4033861041867959,
                    -0.6800737300921247,
                    -0.9895840870866273,
                    0.43323538617640805,
                    0.4488222140265778,
                    -1.1670071127038733,
                    0.2228018561152757,
                    -0.9785377957634647,
                    -0.2664922312231078,
                    -1.4323268255289558,
                    -1.6584228872663658,
                    -0.14368785190075783,
                    -0.9594274169781198,
                    -1.237766297227098,
                    -0.2823610723342978,
                    -0.8843339923783643,
                    -0.7699002299327117,
                    0.9417945721714538,
                    -0.3693113542381024,
                    0.26478127844941435,
                    -0.3721997488264279,
                    -0.4089982688898424,
                    0.9759430140136923,
                    0.7098097372017433,
                    0.13201759358568418,
                    -0.5902704253589074,
                    -0.729316193648295,
                    0.03913565115726643,
                    0.07581091333804044,
                    -0.09222465109209443,
                    -0.4058395002333534,
                    -0.8345075188354715,
                    -0.48599038887828105,
                    -0.43554909551324633,
                    0.19534667524217794,
                    -0.6295752120596434,
                    -1.375281570956531,
                    -0.28410889263706773,
                    -0.5160370688670138,
                    -0.0626731422532318,
                    0.5712863118023069,
                    -0.5268378180481762,
                    -0.6859927647844507,
                    0.11427644839390655,
                    -0.7386461115790453,
                    0.07921871605493717,
                    0.7357370010297646,
                    -0.6296269966332526,
                    -0.04780211452853678,
                    0.32132774711599876,
                    -0.44371215476254866,
                    0.28126108067864497,
                    -0.23807140531080054,
                    -0.7130778979251593,
                    -0.2931633411858383,
                    -0.965352015326946,
                    0.17324052607222068,
                    -0.03135829544715969,
                    0.12552887922708766,
                    0.35713668212715843,
                    0.317090375890459,
                    -1.3197974765119636,
                    0.33205177190652124,
                    0.36217414434903905,
                    0.08474926571036875,
                    -1.5099719971689054,
                    0.16990738074174389,
                    -0.9260857566501051,
                    0.1270392676202089,
                    -0.7091831429035181,
                    -0.43740501400525994,
                    0.5428076417004559,
                    -0.39396127659658126,
                    -0.2274722885172113,
                    0.10651375792164064,
                    -0.430449779090577,
                    -0.6627193999024017,
                    -0.9842065653286729,
                    0.8634784478625996,
                    0.8122894715155627,
                    0.73887588452751,
                    0.6048278036185039,
                    0.16954171258990805,
                    1.0650175603232683,
                    0.46561677546686064,
                    -0.5162942471244925,
                    -0.4531250862356881,
                    -0.5428832000620152,
                    -0.060525892862841546,
                    -0.7236503390712113,
                    -0.3993007726845614,
                    0.21642034799665585,
                    0.03492286319994323,
                    -1.2435597902407338,
                    -0.11948639372329285,
                    -1.0745154799133876,
                    0.3441781712317192,
                    -0.315487448868689,
                    0.4905462937578864,
                    -0.5787876012986558,
                    0.7532906347985612,
                    0.8900070538547105,
                    0.5760955947719097,
                    -0.23960718996578345,
                    -0.9616241043492453,
                    -0.2781526603574346,
                    0.30492992150076537,
                    -0.546410034757576,
                    -0.8418468097764557,
                    0.9879430138604346,
                    0.9500131129164958,
                    0.3861958989718661,
                    1.299027796862429,
                    0.953989241475478,
                    1.377496479263916,
                    0.6254346427012469,
                    0.7327178001373164,
                    -0.07143974150913524,
                    0.9225002564276934,
                    0.21298674183920735,
                    -0.5156983222811153,
                    0.14989451979487217,
                    -0.21069912216484254,
                    -0.19640487905217568,
                    0.6018346247992422,
                    0.2673803921326271,
                    0.7108040987210407,
                    -0.5752113145079419,
                    0.7898183867364894,
                    -0.5749086795045988,
                    -0.4904884466671635,
                    0.5818129228426565,
                    -0.9484472590872597,
                    0.6025188731658674,
                    0.5298161997039524,
                    0.3298118431275224,
                    -0.055838915919762845,
                    -0.5944498606366924,
                    0.16693258457327007,
                    0.7511790460041725,
                    1.0741908191306984,
                    1.0555426532252075,
                    1.331513631750543,
                    1.0459059099743548,
                    -0.18604776128359324,
                    1.6496990603651775,
                    0.7603436357474012,
                    0.11566297347123342,
                    0.928191194584471,
                    -0.16243164258590867,
                    0.3348003837849918,
                    0.7830284760107327,
                    0.7486473598207223,
                    -0.02404809485348436,
                    -0.4678504278405922,
                    -0.25120338510199897,
                    0.451738528704384,
                    -0.9769537829405621,
                    -0.2494756328805796,
                    -0.2683784490197072,
                    -0.7785650768371053,
                    0.5020758863219901,
                    -0.014960712685747168,
                    -0.740547356224116,
                    -0.1828889078158617,
                    0.6088566015160738,
                    -0.33619019706856806,
                    1.1556960039434123,
                    -0.3471568091313747,
                    -0.24346285135525,
                    1.1286135313316508,
                    -0.056725496908177554,
                    0.10286585620982237,
                    0.5445342371172754,
                    -0.45776944117709994,
                    0.3584453180335114,
                    -0.19403769400109191,
                    0.9742364903651201,
                    0.6314223089903127,
                    -0.9755133728608618,
                    -0.7129776228645507,
                    -0.3810547067450952,
                    0.14087718566141666,
                    0.5722096802725953,
                    -0.6879131427038581,
                    0.8244028971581498,
                    -0.5206589081056576,
                    -0.14007249375696929,
                    -0.7712519863501186,
                    0.4921684537187956,
                    0.9678808047222855,
                    -0.28899707832574734,
                    0.1537890946042109,
                    0.8558422010945491,
                    -0.9496923830600373,
                    -0.8819282134354544,
                    -0.9037068582147462,
                    0.31670201878157617,
                    -0.758497120160677,
                    -0.9683125745041452,
                    0.062114361916164665,
                    0.34876121902168405,
                    -0.7805816071788548,
                    -0.5858364891081982,
                    0.35259597678299404,
                    0.04389780571899381,
                    0.19433360867181335,
                    -0.34404085718342187,
                    -0.6042752286881706,
                    -0.19614400000632032,
                    -0.3986742803095591,
                    -0.13335306686984705,
                    -0.520545204906854,
                    -0.834635183141238,
                    0.708615706247943
                ],
                [
                    0.70322242355998,
                    -0.13081544730370243,
                    0.36548175036204,
                    -0.14502600981271696,
                    0.9731076758819273,
                    -0.914846076310498,
                    0.6193790092580127,
                    0.24516222883617433,
                    0.5280993691538955,
                    -0.8937468152857257,
                    0.41760188065836656,
                    -0.2265229898525929,
                    -0.34268023232899636,
                    -0.5964665689624906,
                    0.7550680184768241,
                    -0.9801754125451643,
                    0.45684340253720146,
                    0.41854613550645503,
                    -0.6102110314232174,
                    -0.47614548908970145,
                    -0.32670359989370934,
                    0.560762414630243,
                    -0.8796215688946831,
                    -0.11636305538279967,
                    -0.43837589671605626,
                    -0.4124292092398141,
                    0.6394664767828044,
                    -0.862215179508462,
                    0.03440951305831952,
                    0.16144151473009005,
                    -0.31876110616565634,
                    -0.2728925185572164,
                    -0.11720787893955942,
                    0.24522608334922502,
                    -0.7926701852418341,
                    -0.5380530807723423,
                    0.3970604447720296,
                    0.7548392138657015,
                    -0.34891346420265146,
                    -0.24751074242095694,
                    0.03439797231800634,
                    0.7600480249936586,
                    0.11955986496298081,
                    0.4574688469735256,
                    -0.6172051183209188,
                    -0.1584668816850652,
                    0.8973731700408747,
                    0.8625570469923896,
                    -0.13194247746210547,
                    0.8149641417498497,
                    -0.18640458652930297,
                    0.7667254344912509,
                    0.2632712112136597,
                    -0.8486470801286152,
                    0.9864429701925059,
                    -0.5865232946477845,
                    0.014551025023878728,
                    -0.5831066758978929,
                    0.4787126175958578,
                    0.8253994040406429,
                    -0.0847379195730098,
                    0.7493688172183128,
                    -0.9037009957655882,
                    -0.07894005861038877,
                    -0.8187029153537934,
                    -0.6023002003348902,
                    -0.946867877044354,
                    -0.09298043739753928,
                    -0.8826353555284187,
                    -0.18817043791299784,
                    0.7697603511703645,
                    0.624886606797335,
                    -0.6322515372457118,
                    0.2695585507442431,
                    -0.14473450847368338,
                    0.8596346652998536,
                    -0.5671034571785788,
                    0.5842787228948708,
                    -0.5413736808454714,
                    0.4102737449167063,
                    0.3153575410501379,
                    0.9465596028460779,
                    -0.7805598099366315,
                    0.5676011963015408,
                    -0.8335206745554609,
                    0.7629090808922228,
                    0.2893684598943882,
                    0.354474113811164,
                    0.5394094010755881,
                    0.0928997361973487,
                    -0.5483830849870666,
                    -0.7956654424740449,
