{
    "learning_rate": 0.1,
    "activation": "ReLU",
    "layer_0": {
        "weights": {
            "rows": 10,
            "cols": 784,
            "vals": [
                [
                    -0.28687489296092394,
                    0.2176161813828097,
                    0.7511257344557833,
                    -0.09145023388904527,
                    -0.0013601921524224458,
                    -0.4330644851119616,
                    -0.246979128375165,
                    0.037819357833493994,
                    -0.25978573868723953,
                    0.9192231972113036,
                    0.9722941201411528,
                    0.08247650360495307,
                    0.7712382345573556,
                    -0.14509488515761682,
                    -0.7402076740679069,
                    0.27644314557478467,
                    0.7773729328265833,
                    0.7175807737496411,
                    -0.20588650841156708,
                    0.6779472844741665,
                    -0.7618015661984032,
                    0.4349763964573441,
                    0.6797807878562583,
                    0.6215375366430758,
                    -0.6857810553864516,
                    -0.6017759393569284,
                    0.0022159824239631476,
                    0.13021096126368592,
                    -0.9677781053041312,
                    -0.867639590487751,
                    -0.16589776264041656,
                    0.24679741478066197,
                    0.4046453201958453,
                    0.5850397103819494,
                    0.18584324619542048,
                    0.31549017843166416,
                    -0.4452982958348555,
                    -0.9549612056783929,
                    0.018796234559536516,
                    0.03784649934330632,
                    -0.14453461501649634,
                    0.5675428443366664,
                    0.10390243736669505,
                    0.17003357111976805,
                    -0.48460571326066804,
                    -0.1111913097516617,
                    0.4996752524876791,
                    -0.0685056327624407,
                    0.9306828857517195,
                    0.5019726173869783,
                    0.934176058126462,
                    -0.43710648781643213,
                    -0.3995716187520466,
                    0.227687305615641,
                    0.05129870904415301,
                    -0.16075407120752683,
                    0.4856006969002624,
                    -0.5555406720751448,
                    -0.9554170189965467,
                    0.20737817625068744,
                    0.5852997994574307,
                    0.3235066694026396,
                    -0.2183833124963548,
                    -0.704837857799556,
                    0.3789558699700329,
                    -0.789869959099968,
                    0.10820157945091745,
                    -0.6280439384955552,
                    -0.16437436204807096,
                    0.1286211635375358,
                    -0.9511965428914021,
                    -0.8889862594246416,
                    0.18195948004134146,
                    0.3991294684553119,
                    0.9509147572290446,
                    -0.5974303588754123,
                    0.5719118956188377,
                    -0.6858594292528194,
                    0.1107787840265356,
                    -0.3326073725928575,
                    0.7057071147123275,
                    -0.6746067636693664,
                    0.7918161107567281,
                    0.7829932499553478,
                    -0.8675138347555522,
                    0.4858096529726279,
                    -0.4237612139672704,
                    0.8529450058626555,
                    0.6574515758444907,
                    0.8416459488341727,
                    0.32263462084230576,
                    -0.41840089443788353,
                    -0.14318038450608475,
                    -0.6034918206976555,
                    0.11123857808044406,
                    0.35161029276919925,
                    0.5489682422401463,
                    0.2793463260701344,
                    0.24270129154978187,
                    0.5061949473170008,
                    -0.9201161531454067,
                    -0.8750952441230277,
                    0.22995101284434316,
                    0.7951628165093536,
                    0.43253926398578846,
                    -0.8241448948721737,
                    -0.10899255399746104,
                    -0.38632885420959834,
                    -0.03933769576772041,
                    0.762499934578498,
                    0.5816710646055763,
                    0.08772671856556191,
                    0.2034628521313755,
                    -0.29141208945679575,
                    0.03187656922502291,
                    -0.5299756439942798,
                    -0.3755833247910755,
                    0.426916901625893,
                    -0.9166196233608762,
                    0.8833981837871961,
                    -0.24827294901722718,
                    -0.4712378797718709,
                    0.26485372316909833,
                    -0.1628256868937342,
                    -0.5206981640437868,
                    0.0605256458556825,
                    -0.4248518371531322,
                    -0.5346492390264982,
                    0.3290429825529269,
                    -0.8467041827972857,
                    -0.23234253241399702,
                    -0.5283506861263627,
                    -0.6236361520816941,
                    0.13301704877779638,
                    -0.2571565615776841,
                    -0.2615814286500818,
                    -0.4963316947763951,
                    -0.2989513992242441,
                    0.1913402798435535,
                    0.9010455411782838,
                    0.5238107723226912,
                    -0.4984103783156151,
                    0.26784243117474316,
                    -0.752926004912611,
                    -0.5039341347229994,
                    -0.5581127295051872,
                    -0.1192111442223701,
                    0.26931239150638936,
                    -0.39708225180393614,
                    0.7982108400398095,
                    -0.26471922295169487,
                    0.663186178303456,
                    0.3733036178388372,
                    -0.7409266880437287,
                    -0.6040177315645571,
                    -1.2548119877589439,
                    0.08709650376831081,
                    -0.36232696374130036,
                    0.2802824144914158,
                    -0.4480175664652898,
                    -0.8631561172884487,
                    -0.08809162108908795,
                    0.16970790535570934,
                    0.8253733440273069,
                    0.05832125786150718,
                    0.9011501682749026,
                    0.1436500156870291,
                    0.35852593794493637,
                    -0.33264473117702,
                    0.9030098766047319,
                    -0.6931939665010902,
                    0.5380820391630543,
                    0.13714820921032567,
                    -0.4987928715732091,
                    -0.9845171916312968,
                    0.3065354568398082,
                    0.2548280471948641,
                    -0.9664570031385114,
                    -1.1216639192930455,
                    -0.22479484829066865,
                    -1.3775712006119376,
                    -1.3824797531239312,
                    -0.6464560778507079,
                    -0.26009919732007536,
                    -0.1879794851018469,
                    -0.2159759794335758,
                    -0.5768499517287454,
                    0.012880868519053826,
                    -0.4256633268889796,
                    -0.3230760309856889,
                    -0.6345046618549322,
                    -0.1657431734893415,
                    -0.46381107876191907,
                    1.0312975434943092,
                    -0.8206084610725366,
                    -0.5764975925182733,
                    -0.11548305529127809,
                    -0.152175008521929,
                    0.8181554915444245,
                    -0.3950188481575483,
                    0.1111682880542266,
                    0.3347660150623715,
                    0.6196857148890622,
                    1.031312014822977,
                    -0.42385967799530216,
                    -0.8198789563657806,
                    0.2804921313733109,
                    -0.7068858337951007,
                    -0.823446688876146,
                    0.25167274527304506,
                    -0.3534445724911834,
                    -1.4391496328420177,
                    -0.7488774139211132,
                    -0.016510544319622206,
                    -1.3884906793286915,
                    0.4419510218657276,
                    -0.42630234189192895,
                    0.7857090438809724,
                    -0.193735074365909,
                    -0.17802991164690035,
                    0.15410379785718586,
                    -0.34271781333814966,
                    0.3921912090242968,
                    -0.330067496712943,
                    -0.8843625426753113,
                    -0.7489025816954368,
                    -0.639674793165255,
                    0.4041898335556251,
                    0.06765005444558699,
                    -0.19650461906586744,
                    0.05177788099481483,
                    -0.5093511582418608,
                    0.3809022634634567,
                    -0.2153734081157026,
                    -0.24458441133289147,
                    0.778027277516841,
                    0.30320425091002695,
                    0.43123986871229747,
                    0.1669277754526711,
                    -0.22101436944442676,
                    0.04890638512921864,
                    0.2648474057776634,
                    0.11270587810040752,
                    0.7517260135400721,
                    0.8891823625755512,
                    1.04825258413831,
                    0.19411782032983707,
                    0.906869647635219,
                    -0.06677010214733017,
                    0.09833148474138283,
                    -0.1995391807428743,
                    0.6571251626089435,
                    0.7566867059168796,
                    -0.8419838578362392,
                    -0.2855278684021536,
                    -0.7053422678447351,
                    1.162568680270632,
                    1.2510647320788628,
                    -0.19616808022934473,
                    -0.6738007615210858,
                    0.3699022795749629,
                    0.8760490918335946,
                    0.44327761571035357,
                    0.4262389123937301,
                    -0.06149836110826224,
                    -0.08382808052402743,
                    -0.035113011348083104,
                    -0.5206398872955342,
                    -0.4422043983985894,
                    -0.28924080845353106,
                    0.10180149142974915,
                    0.11362406706024192,
                    -0.4311904635511898,
                    0.05824717557416824,
                    -0.5594994582599099,
                    -0.8476301618848828,
                    0.7626116542468003,
                    -0.31102509629257546,
                    -0.32357599165124357,
                    0.36020815527581346,
                    -0.5132406393288134,
                    -0.4402069763587165,
                    -0.2601314458888099,
                    -0.5602968062725708,
                    -0.14867265250142123,
                    0.870289732800664,
                    0.5193021443648748,
                    0.47083217630853963,
                    -0.45640950564154453,
                    -0.03793351661023306,
                    0.7203950828529213,
                    0.554596130578613,
                    1.3098417921371885,
                    -0.5736509346291699,
                    0.6650181244866231,
                    1.0192969254396425,
                    -0.6217785063565833,
                    0.7502687324899895,
                    0.6955121342265481,
                    -0.86983045772337,
                    -0.434078355294032,
                    1.3094612942621693,
                    0.6810777345802421,
                    0.5244276446816585,
                    0.6962639499417349,
                    -0.7627447439164603,
                    -0.32574094662269737,
                    -0.9989945040311263,
                    0.9933856920101429,
                    -0.9544259254371364,
                    -0.1328669848902041,
                    0.3566323500385399,
                    0.2381614712427451,
                    -0.4367664709701276,
                    0.37647258830838365,
                    0.9629247637141446,
                    0.23052864854928498,
                    0.5738380938345893,
                    0.10801289898618176,
                    0.4334446004793922,
                    1.210381592845962,
                    -0.3862659297209831,
                    0.15703962445251318,
                    0.19692184143421237,
                    -0.7212112413580658,
                    -0.5468953952063033,
                    0.4141680485033634,
                    0.9390833539515929,
                    0.7431240573754317,
                    0.9298292792130212,
                    0.8322098716278498,
                    -0.061144722441819774,
                    -0.30377765494834125,
                    -0.6291047222976408,
                    0.15558943355787624,
                    -0.13484249677750482,
                    0.48712332928900276,
                    0.5433779297609145,
                    0.43566459800405455,
                    0.8406377158818719,
                    0.6780573558844145,
                    -0.7583953407762358,
                    0.3320484038690998,
                    0.10528279928375654,
                    -0.15453012045690434,
                    0.6168527523385965,
                    0.5009231894720101,
                    0.45096935700535723,
                    0.39083512609862653,
                    0.19813272064370982,
                    -0.9424832922009968,
                    -0.9508579392178564,
                    -0.684585042901656,
                    -0.6523458141406473,
                    0.08044090808145693,
                    -0.4029380206033672,
                    0.22276943127299065,
                    0.2275250485863651,
                    0.5351311532289532,
                    0.7851467615076346,
                    -0.25115660404637585,
                    -0.16598270898669817,
                    -0.8553244866505039,
                    0.6430828919044207,
                    -0.9492899757664552,
                    1.0123165766127011,
                    0.4891944669252271,
                    -0.40912231200869814,
                    0.6819039607422944,
                    -0.11650325991204266,
                    0.7193338346482742,
                    -0.538087143522757,
                    0.42695331501918277,
                    0.5534421977603262,
                    0.2781467404402158,
                    -1.1426305606493532,
                    -1.4773863355379426,
                    -0.5505374245882454,
                    -0.15843708573165374,
                    -1.4500259153762096,
                    0.21988433421221235,
                    -0.6584077646493364,
                    0.8669502997510043,
                    0.948702126905187,
                    -0.14979362636827262,
                    -0.4861783941295969,
                    -0.9788350188905708,
                    0.07345090474819745,
                    -0.8901825571835633,
                    0.8655238299646296,
                    0.6028187151444675,
                    0.6120235400451037,
                    0.033627133027914716,
                    0.20220048537056812,
                    -0.48245395495431886,
                    0.4827519860899469,
                    0.6580041782774251,
                    -0.19273391979522647,
                    0.4099499222172456,
                    0.7213207751011526,
                    0.3700934682735608,
                    -0.4550396007904869,
                    -0.011148459151475085,
                    -1.225390769675181,
                    -0.9946753320620426,
                    -1.399369121106309,
                    0.07818820385066888,
                    -1.4103439306333379,
                    -1.0042354557075437,
                    -0.6844513059096773,
                    0.2722126127072243,
                    -0.6566732330534617,
                    0.14069374614058938,
                    -0.5803073934041166,
                    -0.7509169361221432,
                    -0.010266123793202027,
                    0.19531357832024102,
                    0.7092408750145681,
                    -0.0784407313218407,
                    -0.48390756360056897,
                    -0.42571327308802376,
                    0.10792927118216045,
                    -0.5322072171874648,
                    0.3296594032526979,
                    -0.08878820367784648,
                    0.5146715585163537,
                    -0.7738353794698237,
                    1.1013449264161668,
                    -0.004108772698589598,
                    -0.9451010876699273,
                    -1.1965559324988726,
                    -1.2830641984038706,
                    0.17038399950896133,
                    -1.3084601108934348,
                    -1.5163940628753045,
                    -0.5160960708314534,
                    -0.4050059397676397,
                    0.5491349330815619,
                    0.8325313464470101,
                    0.8205872427244632,
                    -0.3738595019121587,
                    -0.8893649404748202,
                    0.6523249343953618,
                    -0.008499351299119582,
                    -1.0848338693787642,
                    -0.3222027272888298,
                    -0.1372630744169574,
                    -0.18303919975022298,
                    0.6273706992553024,
                    0.9215929902181157,
                    -0.6679317783775203,
                    0.13836296094312334,
                    -0.7607864981518289,
                    -1.099806584350239,
                    -0.413060465160828,
                    -0.14431905698089342,
                    -0.9090935968224656,
                    -0.14902705171271094,
                    -1.7256320416945419,
                    -0.8451520509082533,
                    -1.3515319963836128,
                    -0.3712873663769826,
                    -0.971251710404542,
                    0.5899995251537363,
                    -0.07848998031695704,
                    0.6508608417263362,
                    0.5427961324899222,
                    -0.13777636671304988,
                    -0.3947216088917621,
                    0.3164939957592757,
                    -0.08169292633119891,
                    -0.3878697127242542,
                    -0.857659962988437,
                    -0.06093166806312005,
                    0.051966793099669895,
                    0.5142807243937981,
                    0.6691097534789876,
                    0.6824831140542791,
                    0.6197181193093102,
                    0.8646853803072905,
                    0.5286254269245576,
                    -1.0127493973304211,
                    -0.35496077494907247,
                    -0.3548159114537047,
                    -1.0742236972329309,
                    -1.3510592805866741,
                    -1.187540345834333,
                    -0.48630387011027437,
                    -1.2146802756381694,
                    -1.6711820337707737,
                    -0.36389185929538675,
                    -0.33391723843423615,
                    -0.07091661610424049,
                    -0.1927640137043599,
                    -0.6303558641254401,
                    -0.4395785773915488,
                    0.043214797150833616,
                    -0.46998696870945744,
                    0.6484128706405122,
                    -1.2196141802183185,
                    0.49118068411238125,
                    0.4937620648868557,
                    0.19882792223424306,
                    0.09111333301468094,
                    0.6017546550209862,
                    0.30580224534542666,
                    -0.7003258351810487,
                    -0.9585711803162896,
                    -0.22257075563076317,
                    -0.23758254130800555,
                    -0.4389948548695997,
                    -0.5810048688023187,
                    -0.4694463072468526,
                    -1.3247216965539033,
                    -0.31654291479483765,
                    -1.3011674298714353,
                    -0.07075684335165995,
                    -1.1468818304493027,
                    0.7193382358324568,
                    -0.07797532853400586,
                    0.4908150922369763,
                    0.036520279422503445,
                    -0.7564950421793651,
                    0.10329725073476684,
                    -0.4034133733281268,
                    0.5093207730388073,
                    0.3138404415031562,
                    -1.1883240004926265,
                    -0.13254161072930676,
                    -0.32301371811925705,
                    -0.1910354412566435,
                    -0.8362588414728764,
                    0.9080089934115803,
                    -0.3739215310978137,
                    0.5201026828959394,
                    -0.2041094473926093,
                    0.43604603116205143,
                    -0.7729354353595486,
                    0.5475862226397866,
                    0.5723619965947693,
                    -0.7305055391236819,
                    -0.960068142198733,
                    -0.673316382492327,
                    -1.0051106692967455,
                    -0.5701460028528286,
                    0.8982370242985773,
                    -1.1339005883364084,
                    -0.6614309274032274,
                    -0.07539753322829712,
                    0.3837412741224088,
                    -0.15327628154484518,
                    0.20333968586124584,
                    -0.009461341966522058,
                    -0.9969127914381775,
                    -0.9371536719787789,
                    -0.04653170729455128,
                    0.3110698290459534,
                    -0.8068773771078562,
                    -0.5819770702624485,
                    -0.9357855428799455,
                    0.2396312446685933,
                    0.9023582559076879,
                    0.20683329087647723,
                    0.3056243438495245,
                    -0.45040273981282825,
                    -0.9356972489151161,
                    -1.1982049916511823,
                    -0.2540265663877238,
                    0.3467946005177163,
                    -0.8666837069921066,
                    -1.408484007601432,
                    -0.6901691639397346,
                    1.0318431541873907,
                    -0.05794036187328616,
                    -0.07163895035680491,
                    -0.6182056323106294,
                    -0.06420011116506187,
                    0.9357318644578957,
                    -0.8298759027139245,
                    0.08639684974768606,
                    -1.0540485828459762,
                    -0.13946220886892954,
                    -0.45651146433521833,
                    0.6537378281643975,
                    0.9009611749748728,
                    0.17254974879198673,
                    -0.37217995561032274,
                    -0.2451212622214554,
                    -0.23822179623499928,
                    0.34591794079656535,
                    0.8299166037998187,
                    -0.1294534932262766,
                    0.8050928634834114,
                    -0.12352733447571203,
                    -0.5972416600055077,
                    -0.5554094848549259,
                    -0.12334878798076043,
                    -0.5049167798425833,
                    -0.6125895770287582,
                    -0.4401639054721137,
                    0.5223043592028002,
                    0.6872147121324028,
                    -1.3690430732228225,
                    0.23653115548257694,
                    0.02230584154900196,
                    0.8265614555179867,
                    -0.5671321186185201,
                    0.4717343770423297,
                    0.32507724150447653,
                    -0.7363876383213352,
                    0.6937830586304639,
                    -0.5999761487191075,
                    0.8479761866210526,
                    0.054081791674569696,
                    0.7809125597014921,
                    0.7453229390893967,
                    -0.2792223306109096,
                    -0.3104654523048367,
                    0.5955102706046003,
                    -0.5726260234096923,
                    0.4964082109692412,
                    -0.4611425777961759,
                    -0.339719176675643,
                    -1.2404987361146127,
                    0.1039134159632281,
                    -0.36718443121384176,
                    0.21366697046767028,
                    -0.5122261403319837,
                    -0.6564558760629887,
                    -1.0832395636939807,
                    0.1600010571750293,
                    0.7568854494356749,
                    0.24663720177986995,
                    -0.13982369546487036,
                    -0.4735250334728333,
                    0.779443256072484,
                    -0.40089269753233414,
                    0.19880098863999202,
                    -0.18395255960131981,
                    0.25808820346377265,
                    0.17644380901564335,
                    0.8975554871177202,
                    -0.09718518381948377,
                    -0.951630190140913,
                    -0.26998364183652535,
                    -0.6240652522993368,
                    -0.7913889148484451,
                    0.4490986368940534,
                    -0.09307666843453981,
                    0.9216078309543517,
                    0.8953563548634427,
                    -0.4886281325210608,
                    0.979208726576394,
                    -0.3341937857253358,
                    0.0017476262428810468,
                    0.7191683759379216,
                    -0.7407910865842573,
                    0.5522617407091351,
                    -0.4768506306906285,
                    0.5973578583598753,
                    -0.010010445258551971,
                    1.010312051956802,
                    0.22250576204497743,
                    0.3946462773366429,
                    -0.7250666370932909,
                    0.5426750315669087,
                    0.8733984031573636,
                    -0.5297506037274051,
                    -0.8602115992866526,
                    -0.647073741524425,
                    0.5621894544617749,
                    0.23382614097823984,
                    0.05204828780864701,
                    0.15853476810717382,
                    0.9976323696147975,
                    -0.7986661856117035,
                    0.10070028173561782,
                    0.21010817333296536,
                    -0.1132433701678114,
                    0.8163651629520394,
                    -0.6772878835960041,
                    -0.3697734436530967,
                    0.25977455733087923,
                    0.8200302855186395,
                    0.9261678866997607,
                    -0.16060802779321462,
                    0.2617578903791265,
                    -0.6019257029954554,
                    0.36136271998838837,
                    -0.23060399557415784,
                    -0.13274057216412233,
                    0.6030419750420121,
                    -0.136624550640286,
                    0.17403104688321916,
                    -0.5923290793454292,
                    0.22523758752073436,
                    0.3343773112425668,
                    -0.4082005503704207,
                    -0.48283966666081324,
                    0.7304924471835812,
                    -0.4873230850705106,
                    0.016082746438049966,
                    0.7331114208269585,
                    0.8641521537834504,
                    -0.050626573113110585,
                    -0.2843919406852587,
                    -0.6363972484057288,
                    -0.6084034900238734,
                    0.024711209960974232,
                    -0.22255019512049312,
                    0.4923925615375597,
                    1.1556249547713775,
                    0.3085402373235864,
                    0.5266723005645829,
                    0.5928251110717699,
                    0.47628193096427063,
                    -0.3138088633114579,
                    0.5360233625827335,
                    -0.1928139688316548,
                    0.480131490016985,
                    -0.09013690800866904,
                    0.46366465953089747,
                    0.7142674795380859,
                    0.833477305887336,
                    -0.6655103308238639,
                    0.576343414688427,
                    -0.455582242543523,
                    0.4472839233603285,
                    0.5469766730997934,
                    -0.8854401632958304,
                    0.06575048938851413,
                    -0.003975692585871382,
                    -0.16048958670027358,
                    -0.7672096734764063,
                    0.3730806425443522,
                    0.8983178710404631,
                    -0.6856521840452229,
                    0.027404220268231163,
                    -0.26242205100706095,
                    0.22692762557978743,
                    -0.01846593253514059,
                    -0.8347879548367378,
                    -0.47631990084768855,
                    -0.5437066891166548,
                    -0.5173470883891522,
                    0.2758553711291924,
                    -0.42307270261815194,
                    0.23538271055869656,
                    0.5544744309332693,
                    -0.5369580559119107,
                    0.3601549743595652,
                    -0.5832348777833356,
                    0.019949216591415908,
                    -0.5443259041184224,
                    -0.9327515472413994,
                    -0.39731424100319,
                    0.8260582300475263,
                    -0.17248753093845348,
                    -0.5209191733601783,
                    -0.48001008117959754,
                    -0.38392540309847795,
                    0.1085263701274109,
                    0.9328448746183083,
                    0.09030878547389445,
                    0.5723195861779939,
                    0.09542951097464979,
                    -0.4245536622376858,
                    -0.45337534766979837,
                    0.23823940382950048,
                    -0.8331840552634868,
                    -0.02588473746873573,
                    -0.837135948734731,
                    -0.5855740040897593,
                    0.6858340152435407,
                    -0.591487291141149,
                    0.7654058495393165,
                    0.7886466420171028,
                    -0.30640189400545315,
                    -0.09288051229550359,
                    0.2618435775510562,
                    0.4229284187351121,
                    0.2547439207923585,
                    0.3530593884096631,
                    -0.5252945474366821
                ],
                [
                    -0.15697277612832816,
                    -0.8148317457537251,
                    -0.2201354529092201,
                    -0.30698686079299153,
                    -0.4688815881024153,
                    0.5998709981337593,
                    -0.6658308554001033,
                    0.5100056065241592,
                    -0.9722091947008022,
                    -0.9905123918094239,
                    0.23129803194223175,
                    0.050871233061382526,
                    -0.08338049014809888,
                    0.09592141286338221,
                    0.08316417649553398,
                    -0.5099983342094412,
                    0.00036360235676657915,
                    -0.08637143469451969,
                    0.7274909728745969,
                    0.38487870409610814,
                    -0.19338922348217302,
                    0.21898460619358762,
                    0.30835415667264154,
                    0.9943144062997737,
                    -0.9091078095769669,
                    0.9532545148914333,
                    0.48294560985531776,
                    -0.344669328127887,
                    0.835646735403315,
                    0.8827135972818132,
                    -0.8730990167957677,
                    0.29737202758429393,
                    -0.7676219642511803,
                    -0.8570116378509374,
                    0.8859260693943068,
                    -0.2218925070792949,
                    0.1344329901395849,
                    0.9242699730740577,
                    -0.0029922875473647977,
                    0.9001827892251958,
                    -0.4473307866894522,
                    -0.1968402662621357,
                    1.023120764838721,
                    -0.15546915871075098,
                    -0.44028514952799586,
                    -0.6400285628882535,
                    -0.6117441952776779,
                    -0.4500509663384312,
                    0.2873920604936406,
                    0.5703495752435499,
                    0.6655129421346374,
                    0.9852760402062313,
                    -0.6278381231769801,
                    -0.1558970770945396,
                    -0.002143833711809817,
                    -0.7248675696932969,
                    0.9924145211624003,
                    -0.9334856780580731,
                    0.48043885579709367,
                    -0.19854474723448115,
                    0.09193039527671934,
                    0.6074324544080149,
                    -0.4139058705368332,
                    -0.7675512549661088,
                    -0.7966704834638478,
                    -0.860020366936626,
                    -0.4959568470256425,
                    -0.05360945649262642,
                    1.1192865139579546,
                    -0.19947598631763946,
                    -0.2782428330176325,
                    1.101430222495107,
                    -0.010524962680947793,
                    -0.5251000112449594,
                    -0.312058165675511,
                    1.1729715109427334,
                    1.0170819654503418,
                    0.25734491675365373,
                    1.1333844461722247,
                    -0.6282652918461116,
                    -0.6956651862681472,
                    -0.1265347062121351,
                    0.8462138268330823,
                    -0.19143900447600282,
                    -0.9244181015047366,
                    -0.7886379848450464,
                    -0.9404490862441467,
                    0.06538798166702679,
                    0.20547544305104684,
                    0.38038006021095794,
                    0.2478682109993721,
                    -0.3249283829991874,
                    0.7226516740456422,
                    0.23356918929071369,
                    0.8634212803060074,
                    0.5879549335218582,
                    0.560244985552382,
                    -0.15224449060650036,
                    0.9421573346636517,
                    0.336778387578815,
                    0.4741989763868927,
                    0.7361521575647073,
                    -0.37630822898467153,
                    1.1998593155252206,
                    -0.22387722394473553,
                    1.172900791423948,
                    0.38252874356388533,
                    0.42324367246086325,
                    0.21381488265126378,
                    -0.6653562845112437,
                    -0.8439927232283257,
                    -0.2118719774068638,
                    -0.17426796952293655,
                    0.8951523853092078,
                    -0.32629920791459793,
                    0.5483371566955108,
                    0.8318427411946624,
                    -0.7518600542502624,
                    -0.7001259578962843,
                    -0.9009162553631059,
                    0.06144218176649398,
                    -0.4595752833001594,
                    0.35536560762372965,
                    -0.5898811453300824,
                    -0.7540958041308544,
                    0.11946152955544004,
                    -0.17686815850597012,
                    -0.4389452471092816,
                    0.17512806743869325,
                    -0.012144238493071984,
                    0.12493533087800503,
                    1.103917349945168,
                    -0.08042320856701957,
                    0.03870260723579389,
                    0.5562020802042825,
                    -0.6656638629841912,
                    -0.744079200974471,
                    0.03250911903953445,
                    0.0846605019742351,
                    0.2003651692335915,
                    -0.4810794383649242,
                    0.8481708685822438,
                    0.41968017606024194,
                    -0.5247396690328744,
                    0.562539875087649,
                    -0.9769468002669967,
                    -0.4259526835417485,
                    -0.1934451291576273,
                    0.0051641430265000334,
                    -0.3050981997031557,
                    -0.1347070785677056,
                    0.5123257832075683,
                    -0.43986951951909853,
                    0.17707750506443048,
                    -0.841810377899771,
                    0.03996570599178037,
                    -0.19925079397853146,
                    -0.05222608811138766,
                    0.8725412328127828,
                    0.14532970619982621,
                    0.9639109375260521,
                    -0.220013538599895,
                    -0.4110775017535148,
                    0.4666308115354631,
                    -0.36475767268784615,
                    -0.37912781058936484,
                    -0.2756858716001974,
                    0.284669032037572,
                    -0.702043990732997,
                    -0.1409396860112262,
                    -0.5145322593582012,
                    -0.22546015517347703,
                    -0.6158955129419417,
                    -0.36372677389685526,
                    -0.46567311322859023,
                    -0.3852980313379022,
                    -1.3623989658714224,
                    -0.6837309387158114,
                    0.5188375309533714,
                    -0.42264982441430604,
                    -0.17932157846939709,
                    -0.3403633087014513,
                    -0.07844471462927119,
                    -0.1239754895287911,
                    -0.28013080729663675,
                    0.2619795500370537,
                    0.1835916045259295,
                    -0.09526464628850705,
                    -0.36326339667225194,
                    0.41566602301401645,
                    0.38320834769516193,
                    -0.6715348364272443,
                    0.2306536301625766,
                    -0.7903687239709328,
                    -0.5659483886152095,
                    -0.5385158104703436,
                    0.4914752196675669,
                    -0.3000175582879283,
                    0.6245333753774456,
                    0.025266921364501347,
                    -0.834563676624692,
                    0.5559715753912936,
                    0.4375460312372612,
                    -0.8088879818265138,
                    0.5393373926098844,
                    -0.8422074083940283,
                    0.034834838154639516,
                    -0.23375585890528092,
                    -0.06758945599357606,
                    -1.1136853439365009,
                    -0.25528413830920155,
                    0.43835612339122976,
                    -0.5896310606859977,
                    -0.7839726335370251,
                    -1.1661097082108747,
                    -1.5291878445372467,
                    -1.437276358531192,
                    -1.3929703162591378,
                    -0.5081863128565773,
                    -1.0990969426230404,
                    -0.9577566268709541,
                    0.09890246864666351,
                    -0.9501990454707816,
                    0.5391437706888461,
                    -0.5902994420830594,
                    0.5858931603629172,
                    0.2422937373432213,
                    0.3282586114179572,
                    -0.9848647089077204,
                    -0.5541576531790283,
                    -1.2508919799571745,
                    -0.1755451794949864,
                    0.08279584060020008,
                    -0.3610891749560506,
                    -0.44251558714105343,
                    -1.1764625815814416,
                    0.4108052970944479,
                    -0.5708687330827606,
                    -0.9736842003498793,
                    -0.8444614460515663,
                    -0.1922755761713668,
                    -0.6094746967512407,
                    -1.5093699386461892,
                    -0.708614068381751,
                    -1.354986448640317,
                    -0.6966049369236311,
                    0.057264507704247604,
                    -1.1414191334396997,
                    -0.4096760544105031,
                    -0.31487668019789755,
                    -0.25417412381730653,
                    -0.44515438553008907,
                    0.12125077177340615,
                    -0.07175547596023371,
                    -0.9441919487810626,
                    0.14844726686630705,
                    -0.06211750477164426,
                    -1.2229186261028147,
                    -0.9865320034804552,
                    -0.48574580060566125,
                    0.3474488384418291,
                    -0.73307567869111,
                    -0.7781585911812496,
                    -0.21893875822122177,
                    -0.3348059292891166,
                    0.4102074104681904,
                    -0.18830423892414425,
                    -0.15965271289889513,
                    -0.669694505130858,
                    -1.3074236107785164,
                    -1.87686966378062,
                    -1.3504581441545664,
                    -1.5454490360202966,
                    -1.5175695546544643,
                    -1.3733071584140621,
                    -0.46954949577415145,
                    0.2891406887426748,
                    0.41766556231770796,
                    -0.09483188798262232,
                    0.6395388487527414,
                    0.9418939042428736,
                    -0.2542118178070094,
                    0.2012204238620006,
                    0.316233558797801,
                    -1.0502501754206233,
                    -0.5628816054698962,
                    0.2746155137277431,
                    0.27521521978778457,
                    -0.6573770317132113,
                    -0.12126286528885859,
                    0.03904543197067139,
                    -0.15179550897377514,
                    -0.6874082475073331,
                    0.42332331050592453,
                    0.46475681774826716,
                    -1.0733438704437945,
                    -0.9151170278427839,
                    -1.368702517341372,
                    -0.2509022821145907,
                    -1.2285461423854467,
                    -0.04864471737353048,
                    -0.26871006528917096,
                    -0.4412479819816877,
                    0.03145853690124392,
                    -0.07723365707336904,
                    -0.45332875082868057,
                    -0.8572877273132127,
                    -0.10886787434514114,
                    0.345132482774545,
                    -0.62354666528872,
                    0.8693689000139219,
                    -0.42587334569049906,
                    0.7040757124943213,
                    -0.5265667857925986,
                    -1.0129479899824672,
                    -0.48771736188129533,
                    0.6933212164078119,
                    0.008705393069627749,
                    -0.2592483352648342,
                    -0.5633213698418046,
                    -0.7225825119979276,
                    -0.752193349185107,
                    -0.7593297976542183,
                    -0.38731758262929106,
                    0.08724121575515227,
                    -0.07932082256726058,
                    0.42175799649964923,
                    0.4381209844107259,
                    -0.7995451836796422,
                    0.6982947345161725,
                    -0.013390105494134517,
                    -0.24360411362740744,
                    -0.27115470427053845,
                    -0.33359145810693613,
                    -0.8739256972258204,
                    -0.8758539593030797,
                    -0.40431787648908313,
                    -0.5192283688505704,
                    0.7974364603224279,
                    -0.4024009883228062,
                    0.32191261195379023,
                    -0.7277554106276491,
                    0.86764343237847,
                    -0.6549754911064937,
                    -0.05347053568078588,
                    0.12921564963460586,
                    -0.7702855583127347,
                    0.7014722410278375,
                    0.5570479476065041,
                    0.17281219875908596,
                    -1.3845583031653277,
                    -0.642569471659601,
                    -0.05279460989533879,
                    -0.6281772915630296,
                    0.01287150859671758,
                    0.6688379835625595,
                    -0.7096833719925162,
                    0.5552871891454398,
                    0.83098438631344,
                    -0.49823010219442604,
                    -0.8251966400253821,
                    0.10331146545110288,
                    -0.570636598525683,
                    -0.059361559762628344,
                    0.19554635970960854,
                    0.46948398997605756,
                    0.0956894623233086,
                    0.5246959116358967,
                    -1.1396894738898888,
                    -0.30582576640144593,
                    0.0035451327472990997,
                    -0.3295556741844014,
                    -0.011307871108551847,
                    0.162575484395676,
                    0.5414083553052066,
                    0.4938840373746873,
                    0.9218303894691862,
                    -0.021596142726439196,
                    -1.3247177406513246,
                    -0.08285675322125965,
                    1.1128916523882588,
                    -0.540765916737866,
                    0.30959567685255573,
                    -0.6107025352845179,
                    0.7366025571162677,
                    -0.5632700304948424,
                    1.0160202682587558,
                    0.8051875370271228,
                    -0.7412206129385326,
                    -0.3846402526500226,
                    -0.3093412737841636,
                    0.6389099652793008,
                    -0.7617204822621763,
                    -0.490114365213447,
                    -0.16404698482152608,
                    0.3991875565002192,
                    0.25540117093767106,
                    0.24357280900973385,
                    0.6302125079942027,
                    -0.06636741581566669,
                    -0.059072872527851365,
                    0.30001010990914045,
                    0.20365320111754687,
                    -0.3318169857569832,
                    -0.17335159699267674,
                    -0.11995466551576836,
                    0.6089932249705784,
                    -0.5400182896279087,
                    0.33335110955848696,
                    0.309826593013666,
                    -0.04645107335641171,
                    -0.4216231759102014,
                    0.6275208756881987,
                    1.0058387278690375,
                    0.8685451827302428,
                    1.1536157602350074,
                    0.26173492476958327,
                    0.47046966886387914,
                    0.3665393475158572,
                    0.179072564637108,
                    0.861656645690468,
                    0.2578484391493372,
                    0.9523165606954592,
                    0.6121096757374868,
                    -1.107450375732717,
                    -0.574418121488106,
                    -0.42426183799669076,
                    0.2116591914895594,
                    1.0990423132584086,
                    -0.18856115688828778,
                    0.0047174804940645606,
                    1.3431617765098132,
                    0.14146382582471181,
                    0.12810969125291746,
                    -0.26633704273807124,
                    -0.19278434666477579,
                    -0.19905967788985757,
                    -0.10057914166903842,
                    -0.8585554535861236,
                    0.579755092078135,
                    -0.5147304017189444,
                    -0.6404341593892797,
                    0.6397082454063457,
                    -0.4516583982277214,
                    0.5836948521974635,
                    -0.4020246665413532,
                    0.42626096542260045,
                    0.8856079730066188,
                    -0.1170626880482879,
                    0.8028938824406322,
                    -0.3293794105664681,
                    0.3121244229190676,
                    -0.5218129926393454,
                    -0.11791599604597733,
                    -0.16403832373674704,
                    -0.0690731324155656,
                    0.38421706417926926,
                    -0.35072089574979387,
                    0.7876591216762885,
                    1.2160026480964676,
                    -0.6587485528804695,
                    0.46630560914556923,
                    -0.11220698201739651,
                    -0.238126628887814,
                    0.15201696507018975,
                    0.21440940689378543,
                    -0.8044126397211653,
                    -0.14487759697999664,
                    0.8856770163201654,
                    -0.678605338806631,
                    1.0088417602719184,
                    0.3775934817039407,
                    -0.985936594901745,
                    -0.3410044439522188,
                    -0.5588300593331602,
                    -0.22918656143693247,
                    -0.3633679121734601,
                    0.29812514190324224,
                    0.1263019386152024,
                    -0.1637633826696174,
                    -0.7794800613129718,
                    -0.8465295049847302,
                    0.1274001105389411,
                    -0.48657601741076856,
                    0.025837312647843415,
                    1.0927348565133008,
                    0.10079035578114036,
                    0.4840017762617394,
                    0.3089210628145686,
                    -0.10926653853965375,
                    0.6624027402496035,
                    -0.26908155413515555,
                    -1.0050846762750225,
                    -0.3405570028706358,
                    0.41914291463646486,
                    0.5224736160881407,
                    -0.2460821348272727,
                    0.5843632959787722,
                    0.6976508061603188,
                    0.9841661886578349,
                    -0.09974687010840866,
                    -1.0497663643821253,
                    0.01763201248330791,
                    0.41537272234629496,
                    -0.026732075586031412,
                    0.5876264425288056,
                    0.0057876395481637356,
                    0.27108575522991313,
                    -0.24906632727658326,
                    -0.7344306174195291,
                    -0.07712725233093991,
                    0.9146633794038241,
                    0.9057164653825666,
                    0.6587648949509223,
                    -0.0851589630450183,
                    0.19067937231999496,
                    1.2937120891950187,
                    0.2127606811424148,
                    -0.42704346668724663,
                    -0.7384308405635656,
                    0.29085011217979195,
                    0.9246828345126652,
                    0.121576067196738,
                    0.14875140062690542,
                    -0.16851622283856915,
                    -0.47802629037299044,
                    0.18596107223166622,
                    0.14882348981677584,
                    0.29783004375810107,
                    -0.8982511813680472,
                    -0.6686195554564697,
                    0.5539195743683625,
                    0.05714764810437911,
                    -0.1614393853698557,
                    -0.9772074769007573,
                    -0.20552679420007147,
                    -0.8348596022634351,
                    0.10493370785083413,
                    -0.3717299298468113,
                    0.22242496162568512,
                    -0.8559501566730247,
                    -0.19961705103598726,
                    0.703924750626605,
                    1.4278694487385488,
                    0.2853761964945056,
                    -0.3850831616562511,
                    1.2798262531794615,
                    0.13270545607536674,
                    0.5043503334660094,
                    0.49376039253343285,
                    -0.14853574446800924,
                    0.43928943985086194,
                    0.667287818336281,
                    0.019059418887241452,
                    -0.6777763412005042,
                    -0.7646122425213995,
                    -0.12040992779118566,
                    0.7175973780112259,
                    0.6486186668877709,
                    0.5669391765231604,
                    -0.07316362681220134,
                    0.001108403703004912,
                    -0.45084188922828267,
                    0.7818896055638781,
                    0.8178323908143648,
                    -0.9391097159985201,
                    -0.40317557809556764,
                    -0.46264727650951587,
                    -0.40581368436197485,
                    -0.47500947191991194,
                    1.026734622671666,
                    0.26789204249861037,
                    0.06685645713571563,
                    1.1537265950656133,
                    0.6307858295803016,
                    -0.06293708514908496,
                    0.8468340815869017,
                    -0.035895701513795536,
                    0.0017507228202214118,
                    -0.2791087121277729,
                    0.659819353198288,
                    0.07984107485556692,
                    -0.2552625259763844,
                    0.2390943601591498,
                    -0.09076748084451762,
                    0.26987054744333183,
                    -0.731219471380247,
                    -0.6877175895370784,
                    -0.5749158648216941,
                    0.8041941762520617,
                    -0.7082447769543977,
                    -0.09016395343149257,
                    0.889510156352419,
                    -0.8270110835973309,
                    0.07326833888721802,
                    -0.45876881079367265,
                    -0.3619220382120095,
                    0.08266490033941958,
                    0.6970590749101117,
                    0.9900561965584146,
                    0.7289157310323989,
                    1.1259930935026912,
                    1.1955745555516324,
                    -0.012436067885859296,
                    0.7586794214245304,
                    0.2880332610200937,
                    0.6410488203078774,
                    0.0859060148926427,
                    -1.0411441759809512,
                    0.5900851430030394,
                    -0.11625522671320554,
                    -0.38178009043263006,
                    -0.1853897017986867,
                    -0.7515267850872878,
                    0.748340084073362,
                    0.49813567178181706,
                    0.9799016975423349,
                    0.1755327591666005,
                    -0.196809549985985,
                    -0.13000797776096906,
                    -0.5451801114900143,
                    -0.6405773062763797,
                    0.061871141998646316,
                    -0.1194531102796043,
                    -0.9722126992364258,
                    -1.0932963112804508,
                    0.16086113529469706,
                    -0.11354948560760617,
                    -0.4009942727977375,
                    -0.868270853027551,
                    -0.41014596132027503,
                    -0.40252166752560337,
                    0.10793889687042914,
                    -1.160595985495112,
                    -0.4027072170174914,
                    -0.31969714016688533,
                    0.08318129839409502,
                    -0.021963304585369815,
                    0.09010270429164964,
                    -0.7921504101470298,
                    -0.32146652408470605,
                    -0.8092793858098862,
                    -0.6276147939968219,
                    0.4237050637434041,
                    -0.2772830066696621,
                    -0.18586525606703264,
                    -0.8611056890462614,
                    -0.9412756326214311,
                    -0.5544409790788709,
                    -0.5847654232617714,
                    -0.5525421486592482,
                    -0.7622406690467357,
                    -1.1653272397426797,
                    -0.0404035056483507,
                    -0.6501840961066339,
                    -1.4096254600208482,
                    -1.012918821908109,
                    -0.8456308936563133,
                    0.03949235591945669,
                    -0.2162855563993324,
                    -0.11700195541291246,
                    -0.05832513984998661,
                    -1.0107933297846416,
                    0.3694642189631633,
                    -0.19592185871503237,
                    0.0292237789183384,
                    -0.10719431049865115,
                    -0.3841696236075972,
                    -1.0430705153234274,
                    0.5036184228423994,
                    -0.8264810902705351,
                    -0.4662300594405224,
                    0.42202530106894454,
                    -0.8171559210600579,
                    -0.6385951148592628,
                    -0.8132114212452042,
                    -0.31633201544257855,
                    0.6246123353494408,
                    -0.8093661468628374,
                    -0.06285456940849346,
                    0.21228900662017897,
                    -0.43803103834770685,
                    0.32110982333689975,
                    -1.123020655472497,
                    -0.06971696396470733,
                    -0.4656657516280305,
                    -1.2780168135558632,
                    -0.4583565212560782,
                    -0.37931338721023233,
                    0.03766749604002212,
                    0.358493631811238,
                    0.8555635637450331,
                    -0.2559805185529993,
                    -0.1924376061771453,
                    0.919138621087085,
                    -0.70613056247732,
                    0.48132191411133246,
                    -0.716743451147954,
                    -0.10855641989975759,
                    0.05029420709672583,
                    -0.22927709548574926,
                    0.9326135161412095,
                    -0.6292095072168964,
                    -0.41647923558340527,
                    0.6323916959148093,
                    0.1927644776564985,
                    0.9557287015506075,
                    0.29242089988484354,
                    0.8885376692545314,
                    -0.3481998022324539,
                    0.10655253425512176,
                    -0.776815042343301,
                    -0.1768248698681603,
                    0.1259802798661362,
                    -0.8338802815180731,
                    0.6236314669175329,
                    0.23138025745468152,
                    0.26788989900669957,
                    -0.5958692493683182,
                    -0.8622177211821922,
                    -0.35633483142941347,
                    -0.0437597148433557,
                    0.05092181298006357,
                    0.5473225226517995,
                    -0.786703967864324,
                    0.34541428748454583,
                    0.5032330321783587,
                    0.2885284414324656,
                    0.18398436035004329,
                    0.7423192135542911,
                    -0.2118162743667884,
                    -0.2531885373447591,
                    -0.5850446913680618,
                    -0.6477016064283927,
                    -0.3200062352895412,
                    -0.5962061951384583,
                    0.36972584320616186,
                    -0.4354611205497428,
                    0.46541478336895253,
                    0.14747128963033002,
                    -0.31469759895860155,
                    -0.18009682570280608,
                    0.40710726167858313,
                    -0.623854357952291,
                    -0.4067425647512593,
                    0.7221185586143941,
                    0.9265001436131018,
                    -0.5537407077147589,
                    -0.48711058598151546,
                    0.244499230421811,
                    -0.693094547284109,
                    -0.7975207863944536,
                    0.2816624321110912,
                    0.33338503326197766,
                    -0.4616576997064603,
                    -0.6474224654792384,
                    0.1645473278813625,
                    0.7354610000258954,
                    0.5176176958594059,
                    -0.679909441896982,
                    -0.15762508924876317,
                    0.9456763155986521,
                    -0.17137261638008727,
                    0.04637493905693679,
                    -0.4662129223564515,
                    0.6192545123688156,
                    -0.4001887881761854,
                    -0.931214437758928,
                    0.5474286156770918,
                    0.5603719843817891,
                    -0.6522612792335254,
                    0.9438029084546441,
                    0.767282314675182,
                    0.7199875150917561,
                    0.1686713292890376,
                    0.5859583743234753,
                    -0.8631247150168824,
                    -0.9897667132462045,
                    0.4113880524220217,
                    -0.9480124556362626,
                    -0.4033519992256114,
                    -0.6765857146435479,
                    -0.3186026844166234,
                    -0.8880562748714993
                ],
                [
                    0.3315108160164313,
                    0.18628971930096294,
                    -0.520059357847706,
                    0.7000296310428993,
                    -0.5730285976886538,
                    0.5573018294906307,
                    0.3396824164729151,
                    -0.7324460766017706,
                    -0.315452415475052,
                    -0.14455242658967427,
                    -0.8761555251308262,
                    -0.13485235768159565,
                    -0.575094768235449,
                    -0.20300432144448832,
                    -0.50196879991798,
                    -0.6563025887922032,
                    0.8355955450989738,
                    -0.628104319612685,
                    -0.6544118738931044,
                    0.7538687254000307,
                    0.8103994814179263,
                    -0.6618954617736075,
                    0.25274533256742826,
                    -0.7662643570557066,
                    -0.20575579487806483,
                    0.6649301064092992,
                    0.4962387474282641,
                    0.829353595756712,
                    0.6653081238582068,
                    -0.8762754061155453,
                    0.7990934874595015,
                    0.7882974209496627,
                    0.9072391999639269,
                    0.436156778299033,
                    0.5548425600367177,
                    -0.25408633484222176,
                    -0.5163139141638524,
                    0.7605204463397879,
                    -0.22284203456549712,
                    0.43504953161410365,
                    -0.6705840404617607,
                    -0.5907948330318369,
                    -0.13707885970775724,
                    0.9559025599086973,
                    -0.8221158582852356,
                    -0.28381032696445907,
                    0.7206424097929369,
                    -0.9497911361946572,
                    -0.3513705352943661,
                    0.7417749388830657,
                    -0.904724344014878,
                    -0.13954617115772483,
                    -0.3992528724570088,
                    -0.9191487714929367,
                    -0.7702073327288941,
                    -0.771855920040073,
                    0.14494081457246333,
                    0.6240107447368191,
                    0.16290861350807173,
                    -0.9001661034850594,
                    -0.42094463171580143,
                    0.5604905195894172,
                    -0.2860826741095137,
                    -0.18590937857772682,
                    -0.4242790752541876,
                    -0.023879882791892237,
                    -0.09340933039212085,
                    0.6349674168208265,
                    0.08221393107765783,
                    -0.4510237491610962,
                    0.31422623132383193,
                    0.316024509605014,
                    0.556544161249032,
                    0.2518761335550449,
                    0.9175672424873682,
                    0.9732183569189972,
                    -0.397125931516548,
                    -0.22626185434644772,
                    -0.5476593524013977,
                    0.45440617749054657,
                    0.17171310002179618,
                    -0.7707618188144445,
                    0.16740760543592104,
                    -0.8725581367824629,
                    -0.2752505892867343,
                    0.9606881709432751,
                    -0.8959191220730947,
                    0.35020962593582716,
                    0.5476340159268682,
                    -0.8731454960502072,
                    0.2321945628126929,
                    -0.4021350648082105,
                    -0.9283981726206971,
                    0.5013774434330749,
                    -0.39389842557921606,
                    -0.94769586348624,
                    -0.17281100714147302,
                    -0.8462003117706262,
                    0.4861233863530876,
                    0.6768737557848614,
                    0.15100939131246557,
                    0.5645707878918826,
                    0.7344182644378389,
                    0.30229076720022113,
                    0.4126506526171894,
                    -0.6697242615025835,
                    -0.31422400650060506,
                    0.0320577472239866,
                    -0.0021706711020135355,
                    -0.6529197565116318,
                    0.8561156091596793,
                    0.7615366947687137,
                    0.8458611268770675,
                    0.6903409174697637,
                    -0.2200396423853046,
                    -0.9512801496397467,
                    0.18518460224356512,
                    0.0006834153170690131,
                    0.8851433122591361,
                    0.26978762174530596,
                    0.9736632273417963,
                    0.9466963532490256,
                    0.11602462008708235,
                    -0.09429682754856335,
                    -0.3562537828235656,
                    0.33276548391065547,
                    -0.661492425933612,
                    0.7503788826947575,
                    -0.3740759626677535,
                    0.09097375732316108,
                    0.1926580419561401,
                    -0.2058384931261394,
                    0.8056707608875198,
                    -0.42949737117986575,
                    0.12347274107756451,
                    0.6608167193933175,
                    0.3862025475926277,
                    -0.008301851278997602,
                    -0.6238282600215279,
                    -0.9332449591947642,
                    -0.49208922796313903,
                    -0.929742738054109,
                    0.20047296523240044,
                    -0.973854341749311,
                    -0.9320541450274584,
                    0.4477316344305029,
                    0.3389033067854722,
                    -0.28860574738187894,
                    -0.7121089790537835,
                    0.25361835164573737,
                    -0.5210987954877114,
                    -0.055750946298075095,
                    -1.464263551124746,
                    -0.8182991639093059,
                    -0.2621153665494344,
                    -0.41860668388907457,
                    -1.4961607363233307,
                    -1.6276330686612135,
                    0.20524758472416763,
                    -1.0062260710558615,
                    -0.954205555934422,
                    -0.4184635932677578,
                    0.4334662161656337,
                    0.7647991331321721,
                    -0.3333917560024851,
                    0.8631033087080344,
                    0.021633241394195736,
                    -0.5310644180365498,
                    0.32687529428080575,
                    -0.5113692362919977,
                    0.6604137937255348,
                    -0.5165944704925366,
                    -0.7009037984523059,
                    -0.5287667371149487,
                    -0.2945780606634847,
                    -1.2392279796134196,
                    0.46864578276221114,
                    -0.543294141620376,
                    -0.1283013161176389,
                    -0.30123070913200034,
                    -0.7762611207913007,
                    -1.3008998341877005,
                    -1.0974759755940529,
                    -0.05840610903237595,
                    -1.427872559667203,
                    -0.4552640941080775,
                    -0.7584166754319451,
                    -0.5185574953521312,
                    -0.9459462616899037,
                    -0.2777292921124408,
                    -1.2816609581489191,
                    -0.9754930676394976,
                    0.640201331420251,
                    -0.958124390435107,
                    -0.4683072563257248,
                    -0.3494547612150542,
                    -0.5035518962438982,
                    -0.321076660728312,
                    -0.5528901452201025,
                    -0.7202077555842241,
                    -0.08042303537908392,
                    0.21064820963070152,
                    0.04213065164662979,
                    -0.41669289417597055,
                    0.9247414895039364,
                    1.2606269487013388,
                    0.17439049196458378,
                    0.6668339448129784,
                    0.5007214706940528,
                    -0.09347738673657104,
                    -0.3635999200356474,
                    -1.1448622714511634,
                    -0.08786049116154708,
                    0.26063290514299015,
                    -0.1342012404052249,
                    0.11102390081621341,
                    -0.07342791933963824,
                    -0.928405798438272,
                    0.4148270779212381,
                    0.028304249251907845,
                    -0.13893922814198278,
                    0.7642188771054116,
                    0.8392338869019408,
                    0.4003208316743667,
                    0.007765266551196288,
                    0.9666840955830035,
                    1.0535110196356439,
                    -0.7596459462742068,
                    0.2955097296487629,
                    -0.381409009042599,
                    -0.8233242386561548,
                    0.9401921759909447,
                    1.3731373023358173,
                    1.322003016912187,
                    1.818337351408793,
                    0.9972417684436715,
                    -0.06745780590084903,
                    -0.48171137752754256,
                    0.5111123412353444,
                    0.7229712077934896,
                    1.104867270740625,
                    0.8268606540673998,
                    0.7403432275625349,
                    -0.6099857888996416,
                    0.47047552979636176,
                    -0.6212119453579839,
                    -0.10677979861067116,
                    0.28708146868754275,
                    -0.08674051026858029,
                    0.1369841566076713,
                    0.940675596352967,
                    -0.761641572130365,
                    -0.8888168838135988,
                    0.9692023210358297,
                    0.26412635925562383,
                    0.6728159008702996,
                    0.20521105159322972,
                    0.5646775211175379,
                    0.17103973936505193,
                    0.6369583048733133,
                    -0.12192999651394612,
                    1.303969235904166,
                    0.3538036385513707,
                    0.6676630323661925,
                    0.62594030510771,
                    1.0716892797362665,
                    1.0039036118763962,
                    0.8899085892255112,
                    0.508774916228439,
                    0.9878708323544723,
                    -0.19007536008944576,
                    0.6295085214015571,
                    -0.12188578774544116,
                    0.7176052577851358,
                    -0.11128364378664904,
                    0.37952820186322733,
                    -1.0802890951169613,
                    0.36181984323383165,
                    -0.06940800924551983,
                    -0.8899400755312263,
                    0.11849921658547972,
                    -0.8002456845954705,
                    -0.7483364045511904,
                    0.5229526835274441,
                    0.24471042403707827,
                    -0.9549137340620459,
                    0.1252503952907611,
                    -0.37799359780412145,
                    -1.0150089082025928,
                    0.008818370949835577,
                    0.07057872219895737,
                    -0.8017004206540059,
                    1.382952367254082,
                    -0.3129042784000236,
                    -0.048529180505980235,
                    1.1630367667423847,
                    1.5445543546874398,
                    1.028961112767892,
                    0.4262213362204573,
                    0.18268831369706684,
                    -0.2672606193470025,
                    0.30852297068827855,
                    -0.9103795091256596,
                    -0.9821112082610325,
                    0.39411504497245015,
                    -0.7774760952566147,
                    -0.7895185773105697,
                    0.8670708583217253,
                    0.764968502099657,
                    0.6978195156082817,
                    0.8546628099446528,
                    0.8163994148186854,
                    -0.701950499169742,
                    0.024291375879460675,
                    0.3912526296120918,
                    0.28527464446380274,
                    -0.05501754785838897,
                    -0.7218997834734853,
                    -1.0278754500150364,
                    -1.1563818663354928,
                    -1.0604864306832698,
                    -1.3683899924374023,
                    -0.9567996658636436,
                    -0.9473963685340238,
                    -0.17787070094729335,
                    0.6258616035742083,
                    0.6191279719687748,
                    -0.01644082283259696,
                    -0.5684566883180509,
                    -0.6072669635298251,
                    0.26518174523133586,
                    0.7315661122067657,
                    0.3762356437066443,
                    -0.5215244188666116,
                    0.27142991446774656,
                    -0.35077001206086145,
                    0.6798372521795337,
                    -0.7343811479562032,
                    0.5363776993445901,
                    -0.7223198127568552,
                    0.2577389964370489,
                    0.6647407384739786,
                    -0.7105250104547153,
                    -0.39600626041587933,
                    -0.8918084958902849,
                    0.19312315725829748,
                    -0.3846490084085357,
                    -0.836518153466905,
                    -0.7024747003948706,
                    -1.593265768475064,
                    -1.495635293058524,
                    -0.8462443044189177,
                    0.6489921127002317,
                    -0.4060322201238331,
                    1.0872877241299004,
                    -0.5493947969684299,
                    -0.5098532638367549,
                    0.8255005324490244,
                    -0.6153089434986092,
                    -0.5331531488528526,
                    0.5653218160960042,
                    0.8160616418672083,
                    -0.6945105671653036,
                    -0.10749845225141752,
                    -0.6322798855478788,
                    -0.6472093923496285,
                    1.0401970635668272,
                    0.06859399657781205,
                    0.489930565727534,
                    -1.0501498483189278,
                    -0.27087655024776747,
                    0.5813040118283765,
                    -0.7377671312824077,
                    -0.028300849247052316,
                    -1.2542905406056426,
                    -1.0576209160545573,
                    -1.6841058880931519,
                    -1.061609044415872,
                    -1.2174655703116446,
                    -1.1704379408612573,
                    0.2701925355557238,
                    0.37301078894097717,
                    -0.6812100522349543,
                    0.09618887107741685,
                    -0.48815326688639926,
                    -1.1858311066149267,
                    -0.6897046536035923,
                    0.22393737167572092,
                    0.1942693459151948,
                    -0.08224878369896678,
                    -0.7061216548690943,
                    0.03850057313860766,
                    -0.4000414695003194,
                    -0.016327986553072212,
                    -0.817269733132817,
                    0.8125937701129912,
                    -0.0039828999002150325,
                    0.1704025175155865,
                    -0.655514754017109,
                    -0.3508094352395375,
                    0.4145836206776444,
                    -0.2501076648170737,
                    -1.0346465225738466,
                    -1.9591438924642421,
                    -0.8198092664501941,
                    -0.8096308755146306,
                    -0.8199913964212254,
                    -0.20872260247897612,
                    0.507332760757032,
                    -0.4473279899790751,
                    -0.4494790193568289,
                    0.70584836015702,
                    0.2733103885037297,
                    -0.580585741591526,
                    -0.7843557919335143,
                    -0.3765133325916657,
                    0.36796696367524856,
                    -0.9573302797836436,
                    -0.03679813206957594,
                    0.9966012270384048,
                    -0.5864735057601194,
                    -0.5693492592258076,
                    0.5838323567510378,
                    0.12032929063413356,
                    -0.9606540577581727,
                    -0.10238069830979317,
                    -1.2836377167341022,
                    -1.082031567375995,
                    -1.291315378333033,
                    -1.194667273624494,
                    -1.0873715819483751,
                    -1.2496728373675563,
                    -1.2912224126535967,
                    -1.037031354679361,
                    -0.8963274044733299,
                    0.43605884344754403,
                    0.8361416886300033,
                    1.024419680196437,
                    0.45849811086707115,
                    0.21213613349596597,
                    0.0853429269090607,
                    -0.382378160616559,
                    -0.17904811103461166,
                    0.18590270048583127,
                    0.0882980323064118,
                    0.21315816875308236,
                    -0.011996624149287094,
                    0.02223102964142387,
                    -0.3099649411030334,
                    0.09936847164445473,
                    0.3569224058732847,
                    -0.21433883908370469,
                    0.02389164067384204,
                    -0.7185448910274335,
                    -1.0777334386218693,
                    0.16836914883902765,
                    -1.2422859676840396,
                    0.012217200697709027,
                    -0.5522127913845578,
                    -1.1173842659217905,
                    -1.6043794123212651,
                    -1.3265801821919991,
                    0.17472752572544287,
                    -0.3735976627757978,
                    0.30204205390014927,
                    0.408030536063498,
                    0.6391900864436392,
                    -0.6899223176599412,
                    0.2767495178016233,
                    -0.5854963977872166,
                    -0.7285472268216097,
                    -1.2470787157802103,
                    0.5813779484558198,
                    0.6595735128070246,
                    -0.8106704800847002,
                    0.634258102082311,
                    0.5349568370423745,
                    -0.6600334379143353,
                    -0.2508078922765525,
                    -0.6288347400505139,
                    -0.8221051375149664,
                    -0.33875256312387403,
                    -0.8285797759733246,
                    -1.08960414836673,
                    -0.18419458811314637,
                    -0.6284535097543816,
                    -0.4717529498668738,
                    -0.2238625323858099,
                    -0.46853585598639824,
                    -0.7275667132329741,
                    0.44178360516734044,
                    0.5331626738284438,
                    0.3974839829779589,
                    -1.0133560672297317,
                    -0.03747994009224105,
                    -0.9902106315455695,
                    -0.1281158182947967,
                    -0.583151951992641,
                    0.2961448552665321,
                    -1.1897066628484902,
                    -0.3811389317727457,
                    -0.4998699145183055,
                    0.4286424710485178,
                    0.8612568219334331,
                    -0.6714021280775834,
                    -0.4056528701893562,
                    -0.9923424651729686,
                    -0.9918867436915816,
                    0.3412432352107781,
                    -0.22626786305231306,
                    0.3096757171148658,
                    0.19132969367650027,
                    -1.2868660673957215,
                    -0.6660721111088754,
                    -0.21078602253051648,
                    -1.0961150365246808,
                    0.28238509857200317,
                    0.04216517813977186,
                    -0.007011048286994378,
                    -0.2623951779279339,
                    -0.8622726281827374,
                    -1.2427500314081732,
                    -1.021678913560112,
                    -1.10034161256443,
                    -1.1749278725318932,
                    -1.3344043302315824,
                    0.3133882870411623,
                    -1.052214542242199,
                    -0.5641390037635976,
                    -0.18521413634296252,
                    0.36538508672483666,
                    -0.0578503579855878,
                    0.4723466215752752,
                    0.40588118586679506,
                    -0.17549690980594437,
                    0.828553539795063,
                    -0.9788420662253301,
                    -1.3320890568370407,
                    -0.5645895049247184,
                    -0.1999647165242933,
                    -1.6552848173373367,
                    -0.008067902204155505,
                    -1.133363438602244,
                    -1.302918797507617,
                    -0.4640486365498199,
                    0.9113656336025397,
                    -0.9282421152818947,
                    0.4892194965872886,
                    -0.5230483343607341,
                    -1.1981959710379828,
                    -0.10532626513173318,
                    -1.6177675485111385,
                    -0.24744140164485337,
                    -1.1754175602050683,
                    -0.6318526037285614,
                    0.08491341665089115,
                    0.221041988812503,
                    0.20211030104890754,
                    -0.864752128335595,
                    -0.3355199790389607,
                    0.9377502273623264,
                    -0.5498597727835897,
                    0.3947964353054043,
                    -0.23106632356911405,
                    0.027744111495661503,
                    0.7460694868998576,
                    -0.03628715998120202,
                    -0.9223446398371504,
                    -1.5001394038679103,
                    -1.5082658554935109,
                    -0.6483042023518978,
                    -0.7966233300030079,
                    0.506445667476058,
                    0.43179228859752744,
                    -1.154209409292992,
                    0.10592952119006158,
                    -1.0219482279673537,
                    -0.31765837464894525,
                    -1.641220557767836,
                    -1.8614574254904084,
                    -0.27687021936455136,
                    -1.066895011888973,
                    -1.2971712908063395,
                    -0.29171074449634105,
                    -0.8859379497243788,
                    -0.7699001928938525,
                    0.9417945721714538,
                    -0.3693113542381024,
                    0.26478127844941435,
                    -0.3721997488264279,
                    -0.4089982688898424,
                    0.9759430140136923,
                    0.6093148737109584,
                    -0.06556854396742957,
                    -0.8159443463960686,
                    -0.9586662684502898,
                    -0.2149384697462927,
                    -0.1000452572735973,
                    0.11974391087674612,
                    -0.3359051765794823,
                    -0.9579826131764416,
                    -0.6758637749337785,
                    -0.38373392632131076,
                    0.13913703768441824,
                    -0.7255558975268331,
                    -1.580944167713935,
                    -0.6804355427077257,
                    -0.974475859882641,
                    -0.5525161868213457,
                    0.13697424620802134,
                    -0.6250573202488867,
                    -0.728502503122874,
                    0.11427668319936438,
                    -0.7386460981083768,
                    0.07921871605493717,
                    0.7357370010297646,
                    -0.6296269966332526,
                    -0.04780211452853678,
                    0.32132774711599876,
                    -0.44371215374059697,
                    0.04615840783215333,
                    -0.4636022370760722,
                    -0.9055127671956852,
                    -0.49029514389453555,
                    -1.1355344904831308,
                    0.18407662247024262,
                    0.1865052496436294,
                    0.09724609083466478,
                    0.10148122142750121,
                    0.004586902311945793,
                    -1.4776804123864087,
                    0.060721448445068923,
                    0.10893686751003497,
                    -0.24701848504243612,
                    -1.95766763075477,
                    -0.2836373569182165,
                    -1.2651174296463514,
                    -0.01617787064019245,
                    -0.7539429237037378,
                    -0.46347252265744127,
                    0.5428077427079988,
                    -0.393961276595032,
                    -0.2274722885172113,
                    0.10651375792164064,
                    -0.430449779090577,
                    -0.6627193999024017,
                    -0.9842065653286729,
                    0.8634784478625996,
                    0.7188308213063466,
                    0.6626064860862446,
                    0.5841099798804671,
                    -0.002308236145532541,
                    0.9566167706441452,
                    0.5455623679095436,
                    -0.4011626148798085,
                    -0.4368959676793459,
                    -0.7771777376317828,
                    -0.4274862003629326,
                    -0.7582101109591982,
                    -0.6174296061295556,
                    0.033943905865591636,
                    -0.03612301437327214,
                    -1.3996475402009612,
                    -0.32678476310995686,
                    -1.198763118842591,
                    0.24815081134020253,
                    -0.3674849564954472,
                    0.4549061735650314,
                    -0.5787875631401925,
                    0.7532906347988887,
                    0.8900070538547105,
                    0.5760955947719097,
                    -0.23960718996578345,
                    -0.9616241043492453,
                    -0.2781526603574346,
                    0.3034442399573374,
                    -0.5576377093019841,
                    -0.8392642015069707,
                    0.9965376577829504,
                    0.9734905168719806,
                    0.5210688084580225,
                    1.4601537908676672,
                    0.9432311604062956,
                    1.4253433029408606,
                    0.7345686193870198,
                    0.7093080109645009,
                    0.06862307987334192,
                    0.8975526484572212,
                    0.14204747385516547,
                    -0.5681899959573882,
                    -0.005270963264116425,
                    -0.3539370460135305,
                    -0.3212491684223588,
                    0.49404212916814044,
                    0.2117058060156913,
                    0.6929877884502583,
                    -0.575211306560706,
                    0.7898183867364894,
                    -0.5749086795045988,
                    -0.4904884466671635,
                    0.5818129228426565,
                    -0.9484472590872597,
                    0.6025188731658674,
                    0.5298161997039524,
                    0.3089436336227578,
                    -0.10231551786468036,
                    -0.639432671064037,
                    0.2683404942237897,
                    0.9763407157454453,
                    1.110689358108631,
                    0.9219244586851988,
                    1.4596392551855182,
                    1.3244495179738662,
                    0.03515874272099793,
                    1.7469499749295216,
                    0.8361726732980399,
                    0.23911037894385248,
                    0.9682844110653244,
                    -0.16116307964043983,
                    0.25896471858850983,
                    0.719031720455564,
                    0.7082848864324126,
                    -0.030672260795722082,
                    -0.4678504278405922,
                    -0.25120337434415513,
                    0.451738528704384,
                    -0.9769537829405621,
                    -0.2494756328805796,
                    -0.2683784490197072,
                    -0.7785650768371053,
                    0.5020758863219901,
                    -0.014960712685747168,
                    -0.7503948473537618,
                    -0.2362456588043607,
                    0.5510221258158324,
                    -0.3561888274418171,
                    1.1351565747403827,
                    -0.493783090335249,
                    -0.5382309686551204,
                    0.8815858761628171,
                    -0.022385600143854364,
                    0.35331152545102856,
                    0.6614606293715818,
                    -0.34615854154166337,
                    0.40555436554760194,
                    -0.17126911435290026,
                    1.0616622196963743,
                    0.638708403679858,
                    -0.9774250424632911,
                    -0.7159052749787583,
                    -0.38103804038772837,
                    0.14097708606850895,
                    0.5722096802725953,
                    -0.6879131426930928,
                    0.8244028971581498,
                    -0.5206589081056576,
                    -0.14007249375696929,
                    -0.7712519863501186,
                    0.4921684537187956,
                    0.9678808047222855,
                    -0.2875280642353147,
                    0.15747726022922542,
                    0.8589993916471986,
                    -0.949566324892125,
                    -0.8814650109085375,
                    -0.9034071410789618,
                    0.31555606997400554,
                    -0.7579415922758052,
                    -0.9673446417441091,
                    0.06310534677163147,
                    0.3476079364194879,
                    -0.7798595595377942,
                    -0.585319111200785,
                    0.3528033875030484,
                    0.04407671097116979,
                    0.19433631611746158,
                    -0.3440408546241925,
                    -0.6042752281726425,
                    -0.19614400000632032,
                    -0.3986742803095591,
                    -0.13335306686984705,
                    -0.520545204906854,
                    -0.834635183141238,
                    0.708615706247943
                ],
                [
                    0.70322242355998,
                    -0.13081544730370243,
                    0.36548175036204,
                    -0.14502600981271696,
                    0.9731076758819273,
                    -0.914846076310498,
                    0.6193790092580127,
                    0.24516222883617433,
                    0.5280993691538955,
                    -0.8937468152857257,
                    0.41760188065836656,
                    -0.2265229898525929,
                    -0.34268023232899636,
                    -0.5964665689624906,
                    0.7550680184768241,
                    -0.9801754125451643,
                    0.45684340253720146,
                    0.41854613550645503,
                    -0.6102110314232174,
                    -0.47614548908970145,
                    -0.32670359989370934,
                    0.560762414630243,
                    -0.8796215688946831,
                    -0.11636305538279967,
                    -0.43837589671605626,
                    -0.4124292092398141,
                    0.6394664767828044,
                    -0.862215179508462,
                    0.03440951305831952,
                    0.16144151473009005,
                    -0.31876110616565634,
                    -0.2728925185572164,
                    -0.11720787893955942,
                    0.24522608334922502,
                    -0.7926701852418341,
                    -0.5380530807723423,
                    0.3970604447720296,
                    0.7548392138657015,
                    -0.34891346420265146,
                    -0.24751074242095694,
                    0.03439797231800634,
                    0.7600480249936586,
                    0.11955986496298081,
                    0.4574688469735256,
                    -0.6172051183209188,
                    -0.1584668816850652,
                    0.8973731700408747,
                    0.8625570469923896,
                    -0.13194247746210547,
                    0.8149641417498497,
                    -0.18640458652930297,
                    0.7667254344912509,
                    0.2632712112136597,
                    -0.8486470801286152,
                    0.9864429701925059,
                    -0.5865232946477845,
                    0.014551025023878728,
                    -0.5831066758978929,
                    0.4787126175958578,
                    0.8253994040406429,
                    -0.0847379195730098,
                    0.7493688172183128,
                    -0.9037009957655882,
                    -0.07894005861038877,
                    -0.8187029153537934,
                    -0.6023002003348902,
                    -0.946867877044354,
                    -0.09298043739753928,
                    -0.8826353555284187,
                    -0.18817043791299784,
                    0.7697603511703645,
                    0.624886606797335,
                    -0.6322515372457118,
                    0.2695585507442431,
                    -0.14473450847368338,
                    0.8596346652998536,
                    -0.5671034571785788,
                    0.5842787228948708,
                    -0.5413736808454714,
                    0.4102737449167063,
                    0.3153575410501379,
                    0.9465596028460779,
                    -0.7805598099366315,
                    0.5676011963015408,
                    -0.8335206745554609,
                    0.7629090808922228,
                    0.2893684598943882,
                    0.354474113811164,
                    0.5394094010755881,
                    0.0928997361973487,
                    -0.5483830849870666,
